=== Run information ===

Scheme:       weka.classifiers.trees.J48 -C 0.25 -M 2
Relation:     KDD_TempWekaCreatedfile_Test_Train-weka.filters.unsupervised.attribute.Remove-R1,7-8,11-12,15-18,20-22,26,28,30,37-41-weka.filters.unsupervised.attribute.Remove-R5-weka.filters.unsupervised.attribute.Remove-R4-5,7-9
Instances:    148516
Attributes:   16
              protocol_type
              service
              flag
              hot
              count
              srv_count
              serror_rate
              rerror_rate
              same_srv_rate
              srv_diff_host_rate
              dst_host_count
              dst_host_srv_count
              dst_host_same_srv_rate
              dst_host_diff_srv_rate
              dst_host_same_src_port_rate
              Label
Test mode:    split 50.0% train, remainder test

=== Classifier model (full training set) ===

J48 pruned tree
------------------

same_srv_rate <= 0.49
|   dst_host_diff_srv_rate <= 0.15
|   |   dst_host_diff_srv_rate <= 0.01
|   |   |   rerror_rate <= 0
|   |   |   |   serror_rate <= 0.48
|   |   |   |   |   dst_host_srv_count <= 251: normal (767.0/3.0)
|   |   |   |   |   dst_host_srv_count > 251: snmpgetattack (3.0/1.0)
|   |   |   |   serror_rate > 0.48
|   |   |   |   |   dst_host_srv_count <= 3: neptune (2.0)
|   |   |   |   |   dst_host_srv_count > 3: buffer_overflow (2.0/1.0)
|   |   |   rerror_rate > 0
|   |   |   |   service = private: neptune (10.0)
|   |   |   |   service = ftp_data: neptune (0.0)
|   |   |   |   service = eco_i: neptune (0.0)
|   |   |   |   service = telnet: buffer_overflow (1.0)
|   |   |   |   service = http: neptune (0.0)
|   |   |   |   service = smtp: neptune (0.0)
|   |   |   |   service = ftp: neptune (0.0)
|   |   |   |   service = ldap: neptune (0.0)
|   |   |   |   service = pop_3: mscan (3.0)
|   |   |   |   service = courier: neptune (0.0)
|   |   |   |   service = discard: neptune (0.0)
|   |   |   |   service = ecr_i: neptune (0.0)
|   |   |   |   service = imap4: neptune (0.0)
|   |   |   |   service = domain_u: neptune (0.0)
|   |   |   |   service = mtp: neptune (0.0)
|   |   |   |   service = systat: neptune (0.0)
|   |   |   |   service = iso_tsap: neptune (0.0)
|   |   |   |   service = other: httptunnel (3.0/1.0)
|   |   |   |   service = csnet_ns: neptune (0.0)
|   |   |   |   service = finger: neptune (0.0)
|   |   |   |   service = uucp: neptune (0.0)
|   |   |   |   service = whois: neptune (0.0)
|   |   |   |   service = netbios_ns: neptune (0.0)
|   |   |   |   service = link: neptune (0.0)
|   |   |   |   service = Z39_50: neptune (0.0)
|   |   |   |   service = sunrpc: neptune (0.0)
|   |   |   |   service = auth: neptune (0.0)
|   |   |   |   service = netbios_dgm: neptune (0.0)
|   |   |   |   service = uucp_path: neptune (0.0)
|   |   |   |   service = vmnet: neptune (0.0)
|   |   |   |   service = domain: neptune (0.0)
|   |   |   |   service = name: neptune (0.0)
|   |   |   |   service = pop_2: neptune (0.0)
|   |   |   |   service = http_443: neptune (0.0)
|   |   |   |   service = urp_i: neptune (0.0)
|   |   |   |   service = login: neptune (0.0)
|   |   |   |   service = gopher: neptune (0.0)
|   |   |   |   service = exec: neptune (0.0)
|   |   |   |   service = time: neptune (0.0)
|   |   |   |   service = remote_job: neptune (0.0)
|   |   |   |   service = ssh: neptune (0.0)
|   |   |   |   service = kshell: neptune (0.0)
|   |   |   |   service = sql_net: neptune (0.0)
|   |   |   |   service = shell: neptune (0.0)
|   |   |   |   service = hostnames: neptune (0.0)
|   |   |   |   service = echo: neptune (0.0)
|   |   |   |   service = daytime: neptune (0.0)
|   |   |   |   service = pm_dump: neptune (0.0)
|   |   |   |   service = IRC: normal (1.0)
|   |   |   |   service = netstat: neptune (0.0)
|   |   |   |   service = ctf: neptune (0.0)
|   |   |   |   service = nntp: neptune (0.0)
|   |   |   |   service = netbios_ssn: neptune (0.0)
|   |   |   |   service = tim_i: neptune (0.0)
|   |   |   |   service = supdup: neptune (0.0)
|   |   |   |   service = bgp: neptune (0.0)
|   |   |   |   service = nnsp: neptune (0.0)
|   |   |   |   service = rje: neptune (0.0)
|   |   |   |   service = printer: neptune (0.0)
|   |   |   |   service = efs: neptune (0.0)
|   |   |   |   service = X11: neptune (0.0)
|   |   |   |   service = ntp_u: neptune (0.0)
|   |   |   |   service = klogin: neptune (0.0)
|   |   |   |   service = red_i: neptune (0.0)
|   |   |   |   service = urh_i: neptune (0.0)
|   |   |   |   service = http_8001: neptune (0.0)
|   |   |   |   service = aol: neptune (0.0)
|   |   |   |   service = http_2784: neptune (0.0)
|   |   |   |   service = tftp_u: neptune (0.0)
|   |   |   |   service = harvest: neptune (0.0)
|   |   dst_host_diff_srv_rate > 0.01
|   |   |   dst_host_same_src_port_rate <= 0.03
|   |   |   |   count <= 8
|   |   |   |   |   serror_rate <= 0.46
|   |   |   |   |   |   rerror_rate <= 0.14
|   |   |   |   |   |   |   hot <= 0: normal (140.0/14.0)
|   |   |   |   |   |   |   hot > 0
|   |   |   |   |   |   |   |   dst_host_same_src_port_rate <= 0: warezmaster (9.0/1.0)
|   |   |   |   |   |   |   |   dst_host_same_src_port_rate > 0: normal (6.0)
|   |   |   |   |   |   rerror_rate > 0.14
|   |   |   |   |   |   |   dst_host_srv_count <= 4
|   |   |   |   |   |   |   |   dst_host_diff_srv_rate <= 0.04
|   |   |   |   |   |   |   |   |   flag = REJ
|   |   |   |   |   |   |   |   |   |   rerror_rate <= 0.58: satan (2.0)
|   |   |   |   |   |   |   |   |   |   rerror_rate > 0.58: portsweep (7.0/3.0)
|   |   |   |   |   |   |   |   |   flag = SF: mscan (1.0)
|   |   |   |   |   |   |   |   |   flag = RSTO: normal (3.0)
|   |   |   |   |   |   |   |   |   flag = S0: portsweep (0.0)
|   |   |   |   |   |   |   |   |   flag = RSTR: portsweep (2.0)
|   |   |   |   |   |   |   |   |   flag = SH: portsweep (0.0)
|   |   |   |   |   |   |   |   |   flag = S3: portsweep (0.0)
|   |   |   |   |   |   |   |   |   flag = S2: portsweep (0.0)
|   |   |   |   |   |   |   |   |   flag = S1: portsweep (0.0)
|   |   |   |   |   |   |   |   |   flag = RSTOS0: portsweep (0.0)
|   |   |   |   |   |   |   |   |   flag = OTH: portsweep (0.0)
|   |   |   |   |   |   |   |   dst_host_diff_srv_rate > 0.04: satan (24.0)
|   |   |   |   |   |   |   dst_host_srv_count > 4
|   |   |   |   |   |   |   |   count <= 5: mscan (281.0/6.0)
|   |   |   |   |   |   |   |   count > 5
|   |   |   |   |   |   |   |   |   flag = REJ: satan (0.0)
|   |   |   |   |   |   |   |   |   flag = SF: satan (3.0)
|   |   |   |   |   |   |   |   |   flag = RSTO: neptune (2.0)
|   |   |   |   |   |   |   |   |   flag = S0: satan (0.0)
|   |   |   |   |   |   |   |   |   flag = RSTR: satan (0.0)
|   |   |   |   |   |   |   |   |   flag = SH: satan (0.0)
|   |   |   |   |   |   |   |   |   flag = S3: satan (0.0)
|   |   |   |   |   |   |   |   |   flag = S2: satan (0.0)
|   |   |   |   |   |   |   |   |   flag = S1: satan (0.0)
|   |   |   |   |   |   |   |   |   flag = RSTOS0: satan (0.0)
|   |   |   |   |   |   |   |   |   flag = OTH: satan (0.0)
|   |   |   |   |   serror_rate > 0.46
|   |   |   |   |   |   serror_rate <= 0.77
|   |   |   |   |   |   |   count <= 5: neptune (5.0/1.0)
|   |   |   |   |   |   |   count > 5: portsweep (2.0)
|   |   |   |   |   |   serror_rate > 0.77: neptune (186.0)
|   |   |   |   count > 8
|   |   |   |   |   protocol_type = tcp
|   |   |   |   |   |   srv_count <= 1
|   |   |   |   |   |   |   dst_host_diff_srv_rate <= 0.03
|   |   |   |   |   |   |   |   serror_rate <= 0.53: normal (21.0)
|   |   |   |   |   |   |   |   serror_rate > 0.53: neptune (9.0)
|   |   |   |   |   |   |   dst_host_diff_srv_rate > 0.03
|   |   |   |   |   |   |   |   dst_host_diff_srv_rate <= 0.09
|   |   |   |   |   |   |   |   |   flag = REJ
|   |   |   |   |   |   |   |   |   |   rerror_rate <= 0.91
|   |   |   |   |   |   |   |   |   |   |   serror_rate <= 0.5: satan (9.0/1.0)
|   |   |   |   |   |   |   |   |   |   |   serror_rate > 0.5: neptune (2.0)
|   |   |   |   |   |   |   |   |   |   rerror_rate > 0.91: neptune (423.0/3.0)
|   |   |   |   |   |   |   |   |   flag = SF
|   |   |   |   |   |   |   |   |   |   rerror_rate <= 0.41: normal (14.0/1.0)
|   |   |   |   |   |   |   |   |   |   rerror_rate > 0.41: neptune (2.0/1.0)
|   |   |   |   |   |   |   |   |   flag = RSTO: neptune (119.0)
|   |   |   |   |   |   |   |   |   flag = S0: neptune (1887.0)
|   |   |   |   |   |   |   |   |   flag = RSTR: neptune (0.0)
|   |   |   |   |   |   |   |   |   flag = SH: neptune (0.0)
|   |   |   |   |   |   |   |   |   flag = S3: neptune (0.0)
|   |   |   |   |   |   |   |   |   flag = S2: neptune (0.0)
|   |   |   |   |   |   |   |   |   flag = S1: neptune (0.0)
|   |   |   |   |   |   |   |   |   flag = RSTOS0: neptune (0.0)
|   |   |   |   |   |   |   |   |   flag = OTH: neptune (0.0)
|   |   |   |   |   |   |   |   dst_host_diff_srv_rate > 0.09
|   |   |   |   |   |   |   |   |   serror_rate <= 0.62
|   |   |   |   |   |   |   |   |   |   rerror_rate <= 0.99: satan (20.0/1.0)
|   |   |   |   |   |   |   |   |   |   rerror_rate > 0.99: neptune (7.0)
|   |   |   |   |   |   |   |   |   serror_rate > 0.62: neptune (29.0)
|   |   |   |   |   |   srv_count > 1
|   |   |   |   |   |   |   flag = REJ: neptune (7916.0)
|   |   |   |   |   |   |   flag = SF
|   |   |   |   |   |   |   |   service = private: normal (0.0)
|   |   |   |   |   |   |   |   service = ftp_data: normal (5.0)
|   |   |   |   |   |   |   |   service = eco_i: normal (0.0)
|   |   |   |   |   |   |   |   service = telnet: normal (0.0)
|   |   |   |   |   |   |   |   service = http: normal (0.0)
|   |   |   |   |   |   |   |   service = smtp: normal (13.0)
|   |   |   |   |   |   |   |   service = ftp: normal (0.0)
|   |   |   |   |   |   |   |   service = ldap: normal (0.0)
|   |   |   |   |   |   |   |   service = pop_3: normal (0.0)
|   |   |   |   |   |   |   |   service = courier: normal (0.0)
|   |   |   |   |   |   |   |   service = discard: normal (0.0)
|   |   |   |   |   |   |   |   service = ecr_i: normal (0.0)
|   |   |   |   |   |   |   |   service = imap4: normal (0.0)
|   |   |   |   |   |   |   |   service = domain_u: normal (0.0)
|   |   |   |   |   |   |   |   service = mtp: normal (0.0)
|   |   |   |   |   |   |   |   service = systat: normal (0.0)
|   |   |   |   |   |   |   |   service = iso_tsap: normal (0.0)
|   |   |   |   |   |   |   |   service = other: normal (0.0)
|   |   |   |   |   |   |   |   service = csnet_ns: normal (0.0)
|   |   |   |   |   |   |   |   service = finger: satan (2.0)
|   |   |   |   |   |   |   |   service = uucp: normal (0.0)
|   |   |   |   |   |   |   |   service = whois: normal (0.0)
|   |   |   |   |   |   |   |   service = netbios_ns: normal (0.0)
|   |   |   |   |   |   |   |   service = link: normal (0.0)
|   |   |   |   |   |   |   |   service = Z39_50: normal (0.0)
|   |   |   |   |   |   |   |   service = sunrpc: normal (0.0)
|   |   |   |   |   |   |   |   service = auth: normal (0.0)
|   |   |   |   |   |   |   |   service = netbios_dgm: normal (0.0)
|   |   |   |   |   |   |   |   service = uucp_path: normal (0.0)
|   |   |   |   |   |   |   |   service = vmnet: normal (0.0)
|   |   |   |   |   |   |   |   service = domain: normal (0.0)
|   |   |   |   |   |   |   |   service = name: normal (0.0)
|   |   |   |   |   |   |   |   service = pop_2: normal (0.0)
|   |   |   |   |   |   |   |   service = http_443: normal (0.0)
|   |   |   |   |   |   |   |   service = urp_i: normal (0.0)
|   |   |   |   |   |   |   |   service = login: normal (0.0)
|   |   |   |   |   |   |   |   service = gopher: normal (0.0)
|   |   |   |   |   |   |   |   service = exec: normal (0.0)
|   |   |   |   |   |   |   |   service = time: normal (0.0)
|   |   |   |   |   |   |   |   service = remote_job: normal (0.0)
|   |   |   |   |   |   |   |   service = ssh: normal (0.0)
|   |   |   |   |   |   |   |   service = kshell: normal (0.0)
|   |   |   |   |   |   |   |   service = sql_net: normal (0.0)
|   |   |   |   |   |   |   |   service = shell: normal (0.0)
|   |   |   |   |   |   |   |   service = hostnames: normal (0.0)
|   |   |   |   |   |   |   |   service = echo: normal (0.0)
|   |   |   |   |   |   |   |   service = daytime: normal (0.0)
|   |   |   |   |   |   |   |   service = pm_dump: normal (0.0)
|   |   |   |   |   |   |   |   service = IRC: normal (0.0)
|   |   |   |   |   |   |   |   service = netstat: normal (0.0)
|   |   |   |   |   |   |   |   service = ctf: normal (0.0)
|   |   |   |   |   |   |   |   service = nntp: normal (0.0)
|   |   |   |   |   |   |   |   service = netbios_ssn: normal (0.0)
|   |   |   |   |   |   |   |   service = tim_i: normal (0.0)
|   |   |   |   |   |   |   |   service = supdup: normal (0.0)
|   |   |   |   |   |   |   |   service = bgp: normal (0.0)
|   |   |   |   |   |   |   |   service = nnsp: normal (0.0)
|   |   |   |   |   |   |   |   service = rje: normal (0.0)
|   |   |   |   |   |   |   |   service = printer: normal (0.0)
|   |   |   |   |   |   |   |   service = efs: normal (0.0)
|   |   |   |   |   |   |   |   service = X11: normal (0.0)
|   |   |   |   |   |   |   |   service = ntp_u: normal (0.0)
|   |   |   |   |   |   |   |   service = klogin: normal (0.0)
|   |   |   |   |   |   |   |   service = red_i: normal (0.0)
|   |   |   |   |   |   |   |   service = urh_i: normal (0.0)
|   |   |   |   |   |   |   |   service = http_8001: normal (0.0)
|   |   |   |   |   |   |   |   service = aol: normal (0.0)
|   |   |   |   |   |   |   |   service = http_2784: normal (0.0)
|   |   |   |   |   |   |   |   service = tftp_u: normal (0.0)
|   |   |   |   |   |   |   |   service = harvest: normal (0.0)
|   |   |   |   |   |   |   flag = RSTO: neptune (1455.0)
|   |   |   |   |   |   |   flag = S0: neptune (32411.0)
|   |   |   |   |   |   |   flag = RSTR: normal (2.0)
|   |   |   |   |   |   |   flag = SH: neptune (0.0)
|   |   |   |   |   |   |   flag = S3: neptune (0.0)
|   |   |   |   |   |   |   flag = S2: neptune (0.0)
|   |   |   |   |   |   |   flag = S1: neptune (0.0)
|   |   |   |   |   |   |   flag = RSTOS0: neptune (0.0)
|   |   |   |   |   |   |   flag = OTH: neptune (0.0)
|   |   |   |   |   protocol_type = icmp: normal (6.0)
|   |   |   |   |   protocol_type = udp
|   |   |   |   |   |   dst_host_count <= 224: normal (6.0)
|   |   |   |   |   |   dst_host_count > 224: satan (8.0)
|   |   |   dst_host_same_src_port_rate > 0.03
|   |   |   |   rerror_rate <= 0.09
|   |   |   |   |   serror_rate <= 0.99
|   |   |   |   |   |   protocol_type = tcp: normal (259.0)
|   |   |   |   |   |   protocol_type = icmp: normal (28.0/1.0)
|   |   |   |   |   |   protocol_type = udp
|   |   |   |   |   |   |   count <= 8: normal (32.0)
|   |   |   |   |   |   |   count > 8
|   |   |   |   |   |   |   |   dst_host_count <= 160: normal (2.0)
|   |   |   |   |   |   |   |   dst_host_count > 160: satan (112.0/1.0)
|   |   |   |   |   serror_rate > 0.99: neptune (87.0)
|   |   |   |   rerror_rate > 0.09
|   |   |   |   |   dst_host_count <= 102: neptune (19.0/1.0)
|   |   |   |   |   dst_host_count > 102: portsweep (122.0)
|   dst_host_diff_srv_rate > 0.15
|   |   serror_rate <= 0.46
|   |   |   rerror_rate <= 0.99
|   |   |   |   count <= 7
|   |   |   |   |   rerror_rate <= 0.22
|   |   |   |   |   |   flag = REJ: normal (0.0)
|   |   |   |   |   |   flag = SF
|   |   |   |   |   |   |   service = private
|   |   |   |   |   |   |   |   dst_host_same_src_port_rate <= 0.91: satan (20.0/2.0)
|   |   |   |   |   |   |   |   dst_host_same_src_port_rate > 0.91
|   |   |   |   |   |   |   |   |   dst_host_same_srv_rate <= 0.08: saint (2.0)
|   |   |   |   |   |   |   |   |   dst_host_same_srv_rate > 0.08: satan (4.0)
|   |   |   |   |   |   |   service = ftp_data: normal (4.0)
|   |   |   |   |   |   |   service = eco_i: normal (0.0)
|   |   |   |   |   |   |   service = telnet: normal (0.0)
|   |   |   |   |   |   |   service = http: normal (0.0)
|   |   |   |   |   |   |   service = smtp: normal (13.0/1.0)
|   |   |   |   |   |   |   service = ftp: normal (1.0)
|   |   |   |   |   |   |   service = ldap: normal (0.0)
|   |   |   |   |   |   |   service = pop_3: normal (2.0)
|   |   |   |   |   |   |   service = courier: normal (0.0)
|   |   |   |   |   |   |   service = discard: normal (0.0)
|   |   |   |   |   |   |   service = ecr_i: normal (0.0)
|   |   |   |   |   |   |   service = imap4: normal (0.0)
|   |   |   |   |   |   |   service = domain_u: saint (1.0)
|   |   |   |   |   |   |   service = mtp: normal (0.0)
|   |   |   |   |   |   |   service = systat: normal (0.0)
|   |   |   |   |   |   |   service = iso_tsap: normal (0.0)
|   |   |   |   |   |   |   service = other
|   |   |   |   |   |   |   |   dst_host_diff_srv_rate <= 0.24
|   |   |   |   |   |   |   |   |   dst_host_same_src_port_rate <= 0.74: normal (18.0)
|   |   |   |   |   |   |   |   |   dst_host_same_src_port_rate > 0.74: satan (11.0)
|   |   |   |   |   |   |   |   dst_host_diff_srv_rate > 0.24: normal (408.0/2.0)
|   |   |   |   |   |   |   service = csnet_ns: normal (0.0)
|   |   |   |   |   |   |   service = finger: normal (2.0)
|   |   |   |   |   |   |   service = uucp: normal (0.0)
|   |   |   |   |   |   |   service = whois: normal (0.0)
|   |   |   |   |   |   |   service = netbios_ns: normal (0.0)
|   |   |   |   |   |   |   service = link: normal (0.0)
|   |   |   |   |   |   |   service = Z39_50: normal (0.0)
|   |   |   |   |   |   |   service = sunrpc: normal (0.0)
|   |   |   |   |   |   |   service = auth: normal (1.0)
|   |   |   |   |   |   |   service = netbios_dgm: normal (0.0)
|   |   |   |   |   |   |   service = uucp_path: normal (0.0)
|   |   |   |   |   |   |   service = vmnet: normal (0.0)
|   |   |   |   |   |   |   service = domain: normal (0.0)
|   |   |   |   |   |   |   service = name: normal (0.0)
|   |   |   |   |   |   |   service = pop_2: normal (0.0)
|   |   |   |   |   |   |   service = http_443: normal (0.0)
|   |   |   |   |   |   |   service = urp_i: normal (0.0)
|   |   |   |   |   |   |   service = login: normal (0.0)
|   |   |   |   |   |   |   service = gopher: satan (1.0)
|   |   |   |   |   |   |   service = exec: normal (0.0)
|   |   |   |   |   |   |   service = time: normal (0.0)
|   |   |   |   |   |   |   service = remote_job: normal (0.0)
|   |   |   |   |   |   |   service = ssh: normal (0.0)
|   |   |   |   |   |   |   service = kshell: normal (0.0)
|   |   |   |   |   |   |   service = sql_net: normal (0.0)
|   |   |   |   |   |   |   service = shell: normal (0.0)
|   |   |   |   |   |   |   service = hostnames: normal (0.0)
|   |   |   |   |   |   |   service = echo: normal (0.0)
|   |   |   |   |   |   |   service = daytime: normal (0.0)
|   |   |   |   |   |   |   service = pm_dump: normal (0.0)
|   |   |   |   |   |   |   service = IRC: normal (0.0)
|   |   |   |   |   |   |   service = netstat: normal (0.0)
|   |   |   |   |   |   |   service = ctf: normal (0.0)
|   |   |   |   |   |   |   service = nntp: normal (0.0)
|   |   |   |   |   |   |   service = netbios_ssn: normal (0.0)
|   |   |   |   |   |   |   service = tim_i: normal (0.0)
|   |   |   |   |   |   |   service = supdup: normal (0.0)
|   |   |   |   |   |   |   service = bgp: normal (0.0)
|   |   |   |   |   |   |   service = nnsp: normal (0.0)
|   |   |   |   |   |   |   service = rje: normal (0.0)
|   |   |   |   |   |   |   service = printer: normal (0.0)
|   |   |   |   |   |   |   service = efs: normal (0.0)
|   |   |   |   |   |   |   service = X11: normal (0.0)
|   |   |   |   |   |   |   service = ntp_u: normal (1.0)
|   |   |   |   |   |   |   service = klogin: normal (0.0)
|   |   |   |   |   |   |   service = red_i: normal (0.0)
|   |   |   |   |   |   |   service = urh_i: normal (0.0)
|   |   |   |   |   |   |   service = http_8001: normal (0.0)
|   |   |   |   |   |   |   service = aol: normal (0.0)
|   |   |   |   |   |   |   service = http_2784: normal (0.0)
|   |   |   |   |   |   |   service = tftp_u: normal (0.0)
|   |   |   |   |   |   |   service = harvest: normal (0.0)
|   |   |   |   |   |   flag = RSTO: normal (0.0)
|   |   |   |   |   |   flag = S0: normal (0.0)
|   |   |   |   |   |   flag = RSTR: portsweep (3.0/1.0)
|   |   |   |   |   |   flag = SH: nmap (1.0)
|   |   |   |   |   |   flag = S3: normal (0.0)
|   |   |   |   |   |   flag = S2: normal (0.0)
|   |   |   |   |   |   flag = S1: normal (1.0)
|   |   |   |   |   |   flag = RSTOS0: normal (0.0)
|   |   |   |   |   |   flag = OTH: normal (0.0)
|   |   |   |   |   rerror_rate > 0.22
|   |   |   |   |   |   dst_host_same_srv_rate <= 0.01
|   |   |   |   |   |   |   dst_host_same_src_port_rate <= 0.2: satan (10.0/2.0)
|   |   |   |   |   |   |   dst_host_same_src_port_rate > 0.2: portsweep (6.0)
|   |   |   |   |   |   dst_host_same_srv_rate > 0.01
|   |   |   |   |   |   |   flag = REJ
|   |   |   |   |   |   |   |   srv_diff_host_rate <= 0.5: saint (2.0)
|   |   |   |   |   |   |   |   srv_diff_host_rate > 0.5: mscan (4.0)
|   |   |   |   |   |   |   flag = SF: mscan (10.0/2.0)
|   |   |   |   |   |   |   flag = RSTO: normal (1.0)
|   |   |   |   |   |   |   flag = S0: land (1.0)
|   |   |   |   |   |   |   flag = RSTR: normal (1.0)
|   |   |   |   |   |   |   flag = SH: mscan (0.0)
|   |   |   |   |   |   |   flag = S3: mscan (0.0)
|   |   |   |   |   |   |   flag = S2: mscan (0.0)
|   |   |   |   |   |   |   flag = S1: mscan (0.0)
|   |   |   |   |   |   |   flag = RSTOS0: mscan (0.0)
|   |   |   |   |   |   |   flag = OTH: mscan (0.0)
|   |   |   |   count > 7
|   |   |   |   |   dst_host_same_srv_rate <= 0
|   |   |   |   |   |   rerror_rate <= 0.9
|   |   |   |   |   |   |   same_srv_rate <= 0.06
|   |   |   |   |   |   |   |   dst_host_diff_srv_rate <= 0.47
|   |   |   |   |   |   |   |   |   serror_rate <= 0.1: satan (73.0)
|   |   |   |   |   |   |   |   |   serror_rate > 0.1
|   |   |   |   |   |   |   |   |   |   dst_host_same_src_port_rate <= 0.31
|   |   |   |   |   |   |   |   |   |   |   same_srv_rate <= 0.02
|   |   |   |   |   |   |   |   |   |   |   |   count <= 134: saint (9.0/1.0)
|   |   |   |   |   |   |   |   |   |   |   |   count > 134: satan (6.0)
|   |   |   |   |   |   |   |   |   |   |   same_srv_rate > 0.02: satan (7.0)
|   |   |   |   |   |   |   |   |   |   dst_host_same_src_port_rate > 0.31: portsweep (3.0)
|   |   |   |   |   |   |   |   dst_host_diff_srv_rate > 0.47
|   |   |   |   |   |   |   |   |   rerror_rate <= 0.89: satan (1275.0/4.0)
|   |   |   |   |   |   |   |   |   rerror_rate > 0.89
|   |   |   |   |   |   |   |   |   |   count <= 486: satan (187.0/6.0)
|   |   |   |   |   |   |   |   |   |   count > 486
|   |   |   |   |   |   |   |   |   |   |   count <= 499: saint (4.0)
|   |   |   |   |   |   |   |   |   |   |   count > 499: satan (57.0)
|   |   |   |   |   |   |   same_srv_rate > 0.06
|   |   |   |   |   |   |   |   service = private
|   |   |   |   |   |   |   |   |   dst_host_diff_srv_rate <= 0.23: saint (2.0)
|   |   |   |   |   |   |   |   |   dst_host_diff_srv_rate > 0.23: satan (53.0/7.0)
|   |   |   |   |   |   |   |   service = ftp_data: satan (0.0)
|   |   |   |   |   |   |   |   service = eco_i: satan (0.0)
|   |   |   |   |   |   |   |   service = telnet: satan (0.0)
|   |   |   |   |   |   |   |   service = http: satan (0.0)
|   |   |   |   |   |   |   |   service = smtp: satan (0.0)
|   |   |   |   |   |   |   |   service = ftp: satan (0.0)
|   |   |   |   |   |   |   |   service = ldap: satan (0.0)
|   |   |   |   |   |   |   |   service = pop_3: satan (0.0)
|   |   |   |   |   |   |   |   service = courier: satan (0.0)
|   |   |   |   |   |   |   |   service = discard: satan (0.0)
|   |   |   |   |   |   |   |   service = ecr_i: satan (0.0)
|   |   |   |   |   |   |   |   service = imap4: satan (0.0)
|   |   |   |   |   |   |   |   service = domain_u: satan (0.0)
|   |   |   |   |   |   |   |   service = mtp: satan (0.0)
|   |   |   |   |   |   |   |   service = systat: satan (0.0)
|   |   |   |   |   |   |   |   service = iso_tsap: satan (0.0)
|   |   |   |   |   |   |   |   service = other
|   |   |   |   |   |   |   |   |   dst_host_diff_srv_rate <= 0.52: satan (33.0)
|   |   |   |   |   |   |   |   |   dst_host_diff_srv_rate > 0.52: normal (6.0/1.0)
|   |   |   |   |   |   |   |   service = csnet_ns: satan (0.0)
|   |   |   |   |   |   |   |   service = finger: satan (0.0)
|   |   |   |   |   |   |   |   service = uucp: satan (1.0)
|   |   |   |   |   |   |   |   service = whois: satan (0.0)
|   |   |   |   |   |   |   |   service = netbios_ns: satan (0.0)
|   |   |   |   |   |   |   |   service = link: satan (0.0)
|   |   |   |   |   |   |   |   service = Z39_50: satan (0.0)
|   |   |   |   |   |   |   |   service = sunrpc: satan (0.0)
|   |   |   |   |   |   |   |   service = auth: satan (0.0)
|   |   |   |   |   |   |   |   service = netbios_dgm: satan (0.0)
|   |   |   |   |   |   |   |   service = uucp_path: satan (0.0)
|   |   |   |   |   |   |   |   service = vmnet: satan (0.0)
|   |   |   |   |   |   |   |   service = domain: satan (0.0)
|   |   |   |   |   |   |   |   service = name: satan (0.0)
|   |   |   |   |   |   |   |   service = pop_2: satan (0.0)
|   |   |   |   |   |   |   |   service = http_443: satan (0.0)
|   |   |   |   |   |   |   |   service = urp_i: satan (0.0)
|   |   |   |   |   |   |   |   service = login: satan (0.0)
|   |   |   |   |   |   |   |   service = gopher: satan (0.0)
|   |   |   |   |   |   |   |   service = exec: satan (0.0)
|   |   |   |   |   |   |   |   service = time: satan (0.0)
|   |   |   |   |   |   |   |   service = remote_job: satan (0.0)
|   |   |   |   |   |   |   |   service = ssh: satan (0.0)
|   |   |   |   |   |   |   |   service = kshell: satan (0.0)
|   |   |   |   |   |   |   |   service = sql_net: satan (0.0)
|   |   |   |   |   |   |   |   service = shell: satan (0.0)
|   |   |   |   |   |   |   |   service = hostnames: satan (0.0)
|   |   |   |   |   |   |   |   service = echo: satan (0.0)
|   |   |   |   |   |   |   |   service = daytime: satan (0.0)
|   |   |   |   |   |   |   |   service = pm_dump: satan (0.0)
|   |   |   |   |   |   |   |   service = IRC: satan (0.0)
|   |   |   |   |   |   |   |   service = netstat: satan (0.0)
|   |   |   |   |   |   |   |   service = ctf: satan (0.0)
|   |   |   |   |   |   |   |   service = nntp: satan (0.0)
|   |   |   |   |   |   |   |   service = netbios_ssn: satan (0.0)
|   |   |   |   |   |   |   |   service = tim_i: satan (0.0)
|   |   |   |   |   |   |   |   service = supdup: satan (0.0)
|   |   |   |   |   |   |   |   service = bgp: satan (0.0)
|   |   |   |   |   |   |   |   service = nnsp: satan (0.0)
|   |   |   |   |   |   |   |   service = rje: satan (0.0)
|   |   |   |   |   |   |   |   service = printer: satan (0.0)
|   |   |   |   |   |   |   |   service = efs: satan (0.0)
|   |   |   |   |   |   |   |   service = X11: satan (0.0)
|   |   |   |   |   |   |   |   service = ntp_u: satan (0.0)
|   |   |   |   |   |   |   |   service = klogin: satan (0.0)
|   |   |   |   |   |   |   |   service = red_i: satan (0.0)
|   |   |   |   |   |   |   |   service = urh_i: satan (0.0)
|   |   |   |   |   |   |   |   service = http_8001: satan (0.0)
|   |   |   |   |   |   |   |   service = aol: satan (0.0)
|   |   |   |   |   |   |   |   service = http_2784: satan (0.0)
|   |   |   |   |   |   |   |   service = tftp_u: satan (0.0)
|   |   |   |   |   |   |   |   service = harvest: satan (0.0)
|   |   |   |   |   |   rerror_rate > 0.9
|   |   |   |   |   |   |   same_srv_rate <= 0
|   |   |   |   |   |   |   |   serror_rate <= 0.03: satan (206.0/7.0)
|   |   |   |   |   |   |   |   serror_rate > 0.03
|   |   |   |   |   |   |   |   |   rerror_rate <= 0.93
|   |   |   |   |   |   |   |   |   |   dst_host_diff_srv_rate <= 0.87: saint (4.0)
|   |   |   |   |   |   |   |   |   |   dst_host_diff_srv_rate > 0.87
|   |   |   |   |   |   |   |   |   |   |   serror_rate <= 0.04
|   |   |   |   |   |   |   |   |   |   |   |   dst_host_diff_srv_rate <= 0.96: satan (7.0)
|   |   |   |   |   |   |   |   |   |   |   |   dst_host_diff_srv_rate > 0.96: saint (7.0)
|   |   |   |   |   |   |   |   |   |   |   serror_rate > 0.04
|   |   |   |   |   |   |   |   |   |   |   |   count <= 341
|   |   |   |   |   |   |   |   |   |   |   |   |   rerror_rate <= 0.92
|   |   |   |   |   |   |   |   |   |   |   |   |   |   count <= 326: satan (6.0)
|   |   |   |   |   |   |   |   |   |   |   |   |   |   count > 326: saint (3.0/1.0)
|   |   |   |   |   |   |   |   |   |   |   |   |   rerror_rate > 0.92: saint (6.0)
|   |   |   |   |   |   |   |   |   |   |   |   count > 341: satan (538.0/39.0)
|   |   |   |   |   |   |   |   |   rerror_rate > 0.93
|   |   |   |   |   |   |   |   |   |   service = private
|   |   |   |   |   |   |   |   |   |   |   count <= 509: satan (52.0)
|   |   |   |   |   |   |   |   |   |   |   count > 509: saint (4.0)
|   |   |   |   |   |   |   |   |   |   service = ftp_data: satan (0.0)
|   |   |   |   |   |   |   |   |   |   service = eco_i: satan (0.0)
|   |   |   |   |   |   |   |   |   |   service = telnet: satan (0.0)
|   |   |   |   |   |   |   |   |   |   service = http: satan (0.0)
|   |   |   |   |   |   |   |   |   |   service = smtp: satan (0.0)
|   |   |   |   |   |   |   |   |   |   service = ftp: satan (0.0)
|   |   |   |   |   |   |   |   |   |   service = ldap: satan (0.0)
|   |   |   |   |   |   |   |   |   |   service = pop_3: satan (0.0)
|   |   |   |   |   |   |   |   |   |   service = courier: satan (0.0)
|   |   |   |   |   |   |   |   |   |   service = discard: satan (0.0)
|   |   |   |   |   |   |   |   |   |   service = ecr_i: satan (0.0)
|   |   |   |   |   |   |   |   |   |   service = imap4: satan (0.0)
|   |   |   |   |   |   |   |   |   |   service = domain_u: satan (0.0)
|   |   |   |   |   |   |   |   |   |   service = mtp: satan (0.0)
|   |   |   |   |   |   |   |   |   |   service = systat: satan (0.0)
|   |   |   |   |   |   |   |   |   |   service = iso_tsap: satan (0.0)
|   |   |   |   |   |   |   |   |   |   service = other
|   |   |   |   |   |   |   |   |   |   |   count <= 507
|   |   |   |   |   |   |   |   |   |   |   |   count <= 446: saint (26.0)
|   |   |   |   |   |   |   |   |   |   |   |   count > 446
|   |   |   |   |   |   |   |   |   |   |   |   |   flag = REJ: saint (68.0/22.0)
|   |   |   |   |   |   |   |   |   |   |   |   |   flag = SF: saint (0.0)
|   |   |   |   |   |   |   |   |   |   |   |   |   flag = RSTO: saint (0.0)
|   |   |   |   |   |   |   |   |   |   |   |   |   flag = S0
|   |   |   |   |   |   |   |   |   |   |   |   |   |   count <= 481: satan (4.0)
|   |   |   |   |   |   |   |   |   |   |   |   |   |   count > 481
|   |   |   |   |   |   |   |   |   |   |   |   |   |   |   count <= 491: saint (5.0)
|   |   |   |   |   |   |   |   |   |   |   |   |   |   |   count > 491: satan (2.0)
|   |   |   |   |   |   |   |   |   |   |   |   |   flag = RSTR: saint (0.0)
|   |   |   |   |   |   |   |   |   |   |   |   |   flag = SH: saint (0.0)
|   |   |   |   |   |   |   |   |   |   |   |   |   flag = S3: saint (0.0)
|   |   |   |   |   |   |   |   |   |   |   |   |   flag = S2: saint (0.0)
|   |   |   |   |   |   |   |   |   |   |   |   |   flag = S1: saint (0.0)
|   |   |   |   |   |   |   |   |   |   |   |   |   flag = RSTOS0: saint (0.0)
|   |   |   |   |   |   |   |   |   |   |   |   |   flag = OTH: saint (0.0)
|   |   |   |   |   |   |   |   |   |   |   count > 507
|   |   |   |   |   |   |   |   |   |   |   |   flag = REJ: satan (94.0/20.0)
|   |   |   |   |   |   |   |   |   |   |   |   flag = SF: satan (0.0)
|   |   |   |   |   |   |   |   |   |   |   |   flag = RSTO: satan (0.0)
|   |   |   |   |   |   |   |   |   |   |   |   flag = S0: saint (4.0/1.0)
|   |   |   |   |   |   |   |   |   |   |   |   flag = RSTR: satan (0.0)
|   |   |   |   |   |   |   |   |   |   |   |   flag = SH: satan (0.0)
|   |   |   |   |   |   |   |   |   |   |   |   flag = S3: satan (0.0)
|   |   |   |   |   |   |   |   |   |   |   |   flag = S2: satan (0.0)
|   |   |   |   |   |   |   |   |   |   |   |   flag = S1: satan (0.0)
|   |   |   |   |   |   |   |   |   |   |   |   flag = RSTOS0: satan (0.0)
|   |   |   |   |   |   |   |   |   |   |   |   flag = OTH: satan (0.0)
|   |   |   |   |   |   |   |   |   |   service = csnet_ns: satan (0.0)
|   |   |   |   |   |   |   |   |   |   service = finger: satan (0.0)
|   |   |   |   |   |   |   |   |   |   service = uucp: satan (0.0)
|   |   |   |   |   |   |   |   |   |   service = whois: satan (0.0)
|   |   |   |   |   |   |   |   |   |   service = netbios_ns: satan (0.0)
|   |   |   |   |   |   |   |   |   |   service = link: satan (0.0)
|   |   |   |   |   |   |   |   |   |   service = Z39_50: satan (1.0)
|   |   |   |   |   |   |   |   |   |   service = sunrpc: satan (0.0)
|   |   |   |   |   |   |   |   |   |   service = auth: satan (0.0)
|   |   |   |   |   |   |   |   |   |   service = netbios_dgm: satan (0.0)
|   |   |   |   |   |   |   |   |   |   service = uucp_path: satan (0.0)
|   |   |   |   |   |   |   |   |   |   service = vmnet: satan (0.0)
|   |   |   |   |   |   |   |   |   |   service = domain: satan (0.0)
|   |   |   |   |   |   |   |   |   |   service = name: satan (0.0)
|   |   |   |   |   |   |   |   |   |   service = pop_2: satan (0.0)
|   |   |   |   |   |   |   |   |   |   service = http_443: satan (0.0)
|   |   |   |   |   |   |   |   |   |   service = urp_i: satan (0.0)
|   |   |   |   |   |   |   |   |   |   service = login: satan (0.0)
|   |   |   |   |   |   |   |   |   |   service = gopher: satan (0.0)
|   |   |   |   |   |   |   |   |   |   service = exec: satan (0.0)
|   |   |   |   |   |   |   |   |   |   service = time: satan (0.0)
|   |   |   |   |   |   |   |   |   |   service = remote_job: satan (0.0)
|   |   |   |   |   |   |   |   |   |   service = ssh: satan (0.0)
|   |   |   |   |   |   |   |   |   |   service = kshell: satan (0.0)
|   |   |   |   |   |   |   |   |   |   service = sql_net: satan (0.0)
|   |   |   |   |   |   |   |   |   |   service = shell: satan (0.0)
|   |   |   |   |   |   |   |   |   |   service = hostnames: satan (0.0)
|   |   |   |   |   |   |   |   |   |   service = echo: satan (0.0)
|   |   |   |   |   |   |   |   |   |   service = daytime: satan (0.0)
|   |   |   |   |   |   |   |   |   |   service = pm_dump: satan (0.0)
|   |   |   |   |   |   |   |   |   |   service = IRC: saint (2.0/1.0)
|   |   |   |   |   |   |   |   |   |   service = netstat: satan (0.0)
|   |   |   |   |   |   |   |   |   |   service = ctf: satan (0.0)
|   |   |   |   |   |   |   |   |   |   service = nntp: satan (0.0)
|   |   |   |   |   |   |   |   |   |   service = netbios_ssn: satan (0.0)
|   |   |   |   |   |   |   |   |   |   service = tim_i: satan (0.0)
|   |   |   |   |   |   |   |   |   |   service = supdup: satan (0.0)
|   |   |   |   |   |   |   |   |   |   service = bgp: satan (0.0)
|   |   |   |   |   |   |   |   |   |   service = nnsp: satan (0.0)
|   |   |   |   |   |   |   |   |   |   service = rje: satan (0.0)
|   |   |   |   |   |   |   |   |   |   service = printer: satan (0.0)
|   |   |   |   |   |   |   |   |   |   service = efs: satan (0.0)
|   |   |   |   |   |   |   |   |   |   service = X11: satan (0.0)
|   |   |   |   |   |   |   |   |   |   service = ntp_u: satan (0.0)
|   |   |   |   |   |   |   |   |   |   service = klogin: satan (0.0)
|   |   |   |   |   |   |   |   |   |   service = red_i: satan (0.0)
|   |   |   |   |   |   |   |   |   |   service = urh_i: satan (0.0)
|   |   |   |   |   |   |   |   |   |   service = http_8001: satan (0.0)
|   |   |   |   |   |   |   |   |   |   service = aol: satan (0.0)
|   |   |   |   |   |   |   |   |   |   service = http_2784: satan (0.0)
|   |   |   |   |   |   |   |   |   |   service = tftp_u: satan (0.0)
|   |   |   |   |   |   |   |   |   |   service = harvest: satan (0.0)
|   |   |   |   |   |   |   same_srv_rate > 0
|   |   |   |   |   |   |   |   dst_host_same_src_port_rate <= 0.27: satan (243.0)
|   |   |   |   |   |   |   |   dst_host_same_src_port_rate > 0.27: portsweep (2.0)
|   |   |   |   |   dst_host_same_srv_rate > 0
|   |   |   |   |   |   dst_host_count <= 125
|   |   |   |   |   |   |   same_srv_rate <= 0.03
|   |   |   |   |   |   |   |   serror_rate <= 0.01: satan (6.0)
|   |   |   |   |   |   |   |   serror_rate > 0.01: portsweep (5.0)
|   |   |   |   |   |   |   same_srv_rate > 0.03
|   |   |   |   |   |   |   |   dst_host_same_src_port_rate <= 0.24
|   |   |   |   |   |   |   |   |   dst_host_count <= 52: saint (4.0)
|   |   |   |   |   |   |   |   |   dst_host_count > 52: normal (2.0/1.0)
|   |   |   |   |   |   |   |   dst_host_same_src_port_rate > 0.24: normal (25.0)
|   |   |   |   |   |   dst_host_count > 125
|   |   |   |   |   |   |   flag = REJ: satan (81.0)
|   |   |   |   |   |   |   flag = SF
|   |   |   |   |   |   |   |   count <= 61
|   |   |   |   |   |   |   |   |   serror_rate <= 0.08
|   |   |   |   |   |   |   |   |   |   service = private
|   |   |   |   |   |   |   |   |   |   |   count <= 38
|   |   |   |   |   |   |   |   |   |   |   |   dst_host_same_src_port_rate <= 0.97
|   |   |   |   |   |   |   |   |   |   |   |   |   dst_host_diff_srv_rate <= 0.95: satan (309.0/8.0)
|   |   |   |   |   |   |   |   |   |   |   |   |   dst_host_diff_srv_rate > 0.95: normal (2.0)
|   |   |   |   |   |   |   |   |   |   |   |   dst_host_same_src_port_rate > 0.97
|   |   |   |   |   |   |   |   |   |   |   |   |   dst_host_diff_srv_rate <= 0.31: satan (72.0/5.0)
|   |   |   |   |   |   |   |   |   |   |   |   |   dst_host_diff_srv_rate > 0.31
|   |   |   |   |   |   |   |   |   |   |   |   |   |   dst_host_same_src_port_rate <= 0.99: normal (5.0)
|   |   |   |   |   |   |   |   |   |   |   |   |   |   dst_host_same_src_port_rate > 0.99
|   |   |   |   |   |   |   |   |   |   |   |   |   |   |   same_srv_rate <= 0.23: satan (3.0/1.0)
|   |   |   |   |   |   |   |   |   |   |   |   |   |   |   same_srv_rate > 0.23: normal (3.0)
|   |   |   |   |   |   |   |   |   |   |   count > 38
|   |   |   |   |   |   |   |   |   |   |   |   dst_host_diff_srv_rate <= 0.39: satan (47.0)
|   |   |   |   |   |   |   |   |   |   |   |   dst_host_diff_srv_rate > 0.39
|   |   |   |   |   |   |   |   |   |   |   |   |   dst_host_same_srv_rate <= 0.04: normal (9.0)
|   |   |   |   |   |   |   |   |   |   |   |   |   dst_host_same_srv_rate > 0.04
|   |   |   |   |   |   |   |   |   |   |   |   |   |   dst_host_diff_srv_rate <= 0.65: satan (18.0/1.0)
|   |   |   |   |   |   |   |   |   |   |   |   |   |   dst_host_diff_srv_rate > 0.65: normal (3.0)
|   |   |   |   |   |   |   |   |   |   service = ftp_data: satan (0.0)
|   |   |   |   |   |   |   |   |   |   service = eco_i: satan (1.0)
|   |   |   |   |   |   |   |   |   |   service = telnet: normal (1.0)
|   |   |   |   |   |   |   |   |   |   service = http: satan (0.0)
|   |   |   |   |   |   |   |   |   |   service = smtp: normal (1.0)
|   |   |   |   |   |   |   |   |   |   service = ftp: satan (0.0)
|   |   |   |   |   |   |   |   |   |   service = ldap: satan (0.0)
|   |   |   |   |   |   |   |   |   |   service = pop_3: satan (0.0)
|   |   |   |   |   |   |   |   |   |   service = courier: satan (0.0)
|   |   |   |   |   |   |   |   |   |   service = discard: satan (1.0)
|   |   |   |   |   |   |   |   |   |   service = ecr_i: satan (0.0)
|   |   |   |   |   |   |   |   |   |   service = imap4: satan (0.0)
|   |   |   |   |   |   |   |   |   |   service = domain_u: satan (7.0)
|   |   |   |   |   |   |   |   |   |   service = mtp: satan (0.0)
|   |   |   |   |   |   |   |   |   |   service = systat: satan (0.0)
|   |   |   |   |   |   |   |   |   |   service = iso_tsap: satan (0.0)
|   |   |   |   |   |   |   |   |   |   service = other
|   |   |   |   |   |   |   |   |   |   |   dst_host_diff_srv_rate <= 0.37: satan (44.0)
|   |   |   |   |   |   |   |   |   |   |   dst_host_diff_srv_rate > 0.37: normal (12.0)
|   |   |   |   |   |   |   |   |   |   service = csnet_ns: satan (0.0)
|   |   |   |   |   |   |   |   |   |   service = finger: satan (1.0)
|   |   |   |   |   |   |   |   |   |   service = uucp: satan (0.0)
|   |   |   |   |   |   |   |   |   |   service = whois: satan (0.0)
|   |   |   |   |   |   |   |   |   |   service = netbios_ns: satan (0.0)
|   |   |   |   |   |   |   |   |   |   service = link: satan (0.0)
|   |   |   |   |   |   |   |   |   |   service = Z39_50: satan (0.0)
|   |   |   |   |   |   |   |   |   |   service = sunrpc: satan (0.0)
|   |   |   |   |   |   |   |   |   |   service = auth: satan (0.0)
|   |   |   |   |   |   |   |   |   |   service = netbios_dgm: satan (0.0)
|   |   |   |   |   |   |   |   |   |   service = uucp_path: satan (0.0)
|   |   |   |   |   |   |   |   |   |   service = vmnet: satan (0.0)
|   |   |   |   |   |   |   |   |   |   service = domain: satan (0.0)
|   |   |   |   |   |   |   |   |   |   service = name: satan (0.0)
|   |   |   |   |   |   |   |   |   |   service = pop_2: satan (0.0)
|   |   |   |   |   |   |   |   |   |   service = http_443: satan (0.0)
|   |   |   |   |   |   |   |   |   |   service = urp_i: satan (0.0)
|   |   |   |   |   |   |   |   |   |   service = login: satan (0.0)
|   |   |   |   |   |   |   |   |   |   service = gopher: satan (1.0)
|   |   |   |   |   |   |   |   |   |   service = exec: satan (0.0)
|   |   |   |   |   |   |   |   |   |   service = time: satan (0.0)
|   |   |   |   |   |   |   |   |   |   service = remote_job: satan (0.0)
|   |   |   |   |   |   |   |   |   |   service = ssh: satan (0.0)
|   |   |   |   |   |   |   |   |   |   service = kshell: satan (0.0)
|   |   |   |   |   |   |   |   |   |   service = sql_net: satan (0.0)
|   |   |   |   |   |   |   |   |   |   service = shell: satan (0.0)
|   |   |   |   |   |   |   |   |   |   service = hostnames: satan (0.0)
|   |   |   |   |   |   |   |   |   |   service = echo: satan (1.0)
|   |   |   |   |   |   |   |   |   |   service = daytime: satan (0.0)
|   |   |   |   |   |   |   |   |   |   service = pm_dump: satan (0.0)
|   |   |   |   |   |   |   |   |   |   service = IRC: satan (0.0)
|   |   |   |   |   |   |   |   |   |   service = netstat: satan (0.0)
|   |   |   |   |   |   |   |   |   |   service = ctf: satan (0.0)
|   |   |   |   |   |   |   |   |   |   service = nntp: satan (0.0)
|   |   |   |   |   |   |   |   |   |   service = netbios_ssn: satan (0.0)
|   |   |   |   |   |   |   |   |   |   service = tim_i: satan (0.0)
|   |   |   |   |   |   |   |   |   |   service = supdup: satan (0.0)
|   |   |   |   |   |   |   |   |   |   service = bgp: satan (0.0)
|   |   |   |   |   |   |   |   |   |   service = nnsp: satan (0.0)
|   |   |   |   |   |   |   |   |   |   service = rje: satan (0.0)
|   |   |   |   |   |   |   |   |   |   service = printer: satan (0.0)
|   |   |   |   |   |   |   |   |   |   service = efs: satan (0.0)
|   |   |   |   |   |   |   |   |   |   service = X11: satan (0.0)
|   |   |   |   |   |   |   |   |   |   service = ntp_u: satan (0.0)
|   |   |   |   |   |   |   |   |   |   service = klogin: satan (0.0)
|   |   |   |   |   |   |   |   |   |   service = red_i: satan (0.0)
|   |   |   |   |   |   |   |   |   |   service = urh_i: satan (0.0)
|   |   |   |   |   |   |   |   |   |   service = http_8001: satan (0.0)
|   |   |   |   |   |   |   |   |   |   service = aol: satan (0.0)
|   |   |   |   |   |   |   |   |   |   service = http_2784: satan (0.0)
|   |   |   |   |   |   |   |   |   |   service = tftp_u: satan (0.0)
|   |   |   |   |   |   |   |   |   |   service = harvest: satan (0.0)
|   |   |   |   |   |   |   |   |   serror_rate > 0.08: normal (7.0)
|   |   |   |   |   |   |   |   count > 61
|   |   |   |   |   |   |   |   |   dst_host_diff_srv_rate <= 0.44: satan (36.0)
|   |   |   |   |   |   |   |   |   dst_host_diff_srv_rate > 0.44
|   |   |   |   |   |   |   |   |   |   protocol_type = tcp: satan (3.0)
|   |   |   |   |   |   |   |   |   |   protocol_type = icmp: normal (0.0)
|   |   |   |   |   |   |   |   |   |   protocol_type = udp: normal (78.0/4.0)
|   |   |   |   |   |   |   flag = RSTO: satan (1.0)
|   |   |   |   |   |   |   flag = S0: satan (9.0/1.0)
|   |   |   |   |   |   |   flag = RSTR: portsweep (3.0/1.0)
|   |   |   |   |   |   |   flag = SH: nmap (1.0)
|   |   |   |   |   |   |   flag = S3: satan (1.0)
|   |   |   |   |   |   |   flag = S2: saint (1.0)
|   |   |   |   |   |   |   flag = S1: satan (0.0)
|   |   |   |   |   |   |   flag = RSTOS0: portsweep (6.0)
|   |   |   |   |   |   |   flag = OTH: satan (0.0)
|   |   |   rerror_rate > 0.99
|   |   |   |   dst_host_same_src_port_rate <= 0.26
|   |   |   |   |   srv_diff_host_rate <= 0.47
|   |   |   |   |   |   dst_host_same_srv_rate <= 0: satan (42.0/1.0)
|   |   |   |   |   |   dst_host_same_srv_rate > 0: neptune (39.0/2.0)
|   |   |   |   |   srv_diff_host_rate > 0.47: mscan (15.0)
|   |   |   |   dst_host_same_src_port_rate > 0.26
|   |   |   |   |   dst_host_count <= 185
|   |   |   |   |   |   srv_count <= 1: portsweep (12.0)
|   |   |   |   |   |   srv_count > 1: normal (11.0)
|   |   |   |   |   dst_host_count > 185: portsweep (245.0)
|   |   serror_rate > 0.46
|   |   |   rerror_rate <= 0.01
|   |   |   |   flag = REJ: neptune (0.0)
|   |   |   |   flag = SF: teardrop (93.0)
|   |   |   |   flag = RSTO: neptune (0.0)
|   |   |   |   flag = S0: neptune (164.0)
|   |   |   |   flag = RSTR: neptune (0.0)
|   |   |   |   flag = SH: nmap (5.0)
|   |   |   |   flag = S3: neptune (0.0)
|   |   |   |   flag = S2: neptune (0.0)
|   |   |   |   flag = S1: neptune (0.0)
|   |   |   |   flag = RSTOS0: neptune (0.0)
|   |   |   |   flag = OTH: neptune (0.0)
|   |   |   rerror_rate > 0.01: portsweep (74.0)
same_srv_rate > 0.49
|   flag = REJ
|   |   dst_host_srv_count <= 2
|   |   |   dst_host_count <= 73
|   |   |   |   dst_host_diff_srv_rate <= 0.87: normal (21.0/3.0)
|   |   |   |   dst_host_diff_srv_rate > 0.87
|   |   |   |   |   dst_host_same_srv_rate <= 0.41: ipsweep (383.0)
|   |   |   |   |   dst_host_same_srv_rate > 0.41: normal (2.0)
|   |   |   dst_host_count > 73
|   |   |   |   dst_host_same_src_port_rate <= 0.01
|   |   |   |   |   service = private
|   |   |   |   |   |   dst_host_diff_srv_rate <= 0.04: portsweep (3.0)
|   |   |   |   |   |   dst_host_diff_srv_rate > 0.04
|   |   |   |   |   |   |   srv_count <= 1: satan (5.0/1.0)
|   |   |   |   |   |   |   srv_count > 1: neptune (2.0)
|   |   |   |   |   service = ftp_data: normal (0.0)
|   |   |   |   |   service = eco_i: normal (0.0)
|   |   |   |   |   service = telnet: normal (0.0)
|   |   |   |   |   service = http: neptune (1.0)
|   |   |   |   |   service = smtp: normal (2.0)
|   |   |   |   |   service = ftp: normal (0.0)
|   |   |   |   |   service = ldap: normal (0.0)
|   |   |   |   |   service = pop_3: mscan (1.0)
|   |   |   |   |   service = courier: normal (0.0)
|   |   |   |   |   service = discard: normal (0.0)
|   |   |   |   |   service = ecr_i: normal (0.0)
|   |   |   |   |   service = imap4: normal (0.0)
|   |   |   |   |   service = domain_u: normal (0.0)
|   |   |   |   |   service = mtp: normal (0.0)
|   |   |   |   |   service = systat: normal (0.0)
|   |   |   |   |   service = iso_tsap: normal (0.0)
|   |   |   |   |   service = other: httptunnel (7.0)
|   |   |   |   |   service = csnet_ns: normal (0.0)
|   |   |   |   |   service = finger: normal (0.0)
|   |   |   |   |   service = uucp: normal (0.0)
|   |   |   |   |   service = whois: normal (0.0)
|   |   |   |   |   service = netbios_ns: normal (0.0)
|   |   |   |   |   service = link: normal (0.0)
|   |   |   |   |   service = Z39_50: normal (0.0)
|   |   |   |   |   service = sunrpc: mscan (1.0)
|   |   |   |   |   service = auth: normal (3.0)
|   |   |   |   |   service = netbios_dgm: normal (0.0)
|   |   |   |   |   service = uucp_path: normal (0.0)
|   |   |   |   |   service = vmnet: normal (0.0)
|   |   |   |   |   service = domain: normal (0.0)
|   |   |   |   |   service = name: normal (0.0)
|   |   |   |   |   service = pop_2: normal (0.0)
|   |   |   |   |   service = http_443: normal (0.0)
|   |   |   |   |   service = urp_i: normal (0.0)
|   |   |   |   |   service = login: normal (0.0)
|   |   |   |   |   service = gopher: normal (0.0)
|   |   |   |   |   service = exec: normal (0.0)
|   |   |   |   |   service = time: normal (0.0)
|   |   |   |   |   service = remote_job: normal (0.0)
|   |   |   |   |   service = ssh: normal (0.0)
|   |   |   |   |   service = kshell: normal (0.0)
|   |   |   |   |   service = sql_net: normal (0.0)
|   |   |   |   |   service = shell: normal (0.0)
|   |   |   |   |   service = hostnames: normal (0.0)
|   |   |   |   |   service = echo: normal (0.0)
|   |   |   |   |   service = daytime: normal (0.0)
|   |   |   |   |   service = pm_dump: normal (0.0)
|   |   |   |   |   service = IRC: normal (0.0)
|   |   |   |   |   service = netstat: normal (0.0)
|   |   |   |   |   service = ctf: normal (0.0)
|   |   |   |   |   service = nntp: normal (0.0)
|   |   |   |   |   service = netbios_ssn: normal (0.0)
|   |   |   |   |   service = tim_i: normal (0.0)
|   |   |   |   |   service = supdup: normal (0.0)
|   |   |   |   |   service = bgp: normal (0.0)
|   |   |   |   |   service = nnsp: normal (0.0)
|   |   |   |   |   service = rje: normal (0.0)
|   |   |   |   |   service = printer: normal (0.0)
|   |   |   |   |   service = efs: normal (0.0)
|   |   |   |   |   service = X11: normal (5.0/1.0)
|   |   |   |   |   service = ntp_u: normal (0.0)
|   |   |   |   |   service = klogin: normal (0.0)
|   |   |   |   |   service = red_i: normal (0.0)
|   |   |   |   |   service = urh_i: normal (0.0)
|   |   |   |   |   service = http_8001: normal (0.0)
|   |   |   |   |   service = aol: normal (0.0)
|   |   |   |   |   service = http_2784: normal (0.0)
|   |   |   |   |   service = tftp_u: normal (0.0)
|   |   |   |   |   service = harvest: normal (0.0)
|   |   |   |   dst_host_same_src_port_rate > 0.01: portsweep (384.0)
|   |   dst_host_srv_count > 2
|   |   |   dst_host_same_srv_rate <= 0.51
|   |   |   |   service = private: neptune (17.0)
|   |   |   |   service = ftp_data: portsweep (3.0/1.0)
|   |   |   |   service = eco_i: mscan (0.0)
|   |   |   |   service = telnet: mscan (68.0)
|   |   |   |   service = http
|   |   |   |   |   same_srv_rate <= 0.97: neptune (10.0/1.0)
|   |   |   |   |   same_srv_rate > 0.97: normal (41.0/2.0)
|   |   |   |   service = smtp: normal (8.0)
|   |   |   |   service = ftp: mscan (0.0)
|   |   |   |   service = ldap: mscan (0.0)
|   |   |   |   service = pop_3: mscan (11.0)
|   |   |   |   service = courier: mscan (0.0)
|   |   |   |   service = discard: mscan (0.0)
|   |   |   |   service = ecr_i: mscan (0.0)
|   |   |   |   service = imap4: mscan (50.0)
|   |   |   |   service = domain_u: mscan (0.0)
|   |   |   |   service = mtp: mscan (0.0)
|   |   |   |   service = systat: mscan (0.0)
|   |   |   |   service = iso_tsap: mscan (0.0)
|   |   |   |   service = other: httptunnel (100.0)
|   |   |   |   service = csnet_ns: mscan (0.0)
|   |   |   |   service = finger: mscan (0.0)
|   |   |   |   service = uucp: mscan (0.0)
|   |   |   |   service = whois: mscan (0.0)
|   |   |   |   service = netbios_ns: mscan (0.0)
|   |   |   |   service = link: mscan (0.0)
|   |   |   |   service = Z39_50: mscan (0.0)
|   |   |   |   service = sunrpc: mscan (55.0)
|   |   |   |   service = auth: normal (13.0)
|   |   |   |   service = netbios_dgm: mscan (0.0)
|   |   |   |   service = uucp_path: mscan (0.0)
|   |   |   |   service = vmnet: mscan (0.0)
|   |   |   |   service = domain: mscan (0.0)
|   |   |   |   service = name: mscan (0.0)
|   |   |   |   service = pop_2: mscan (0.0)
|   |   |   |   service = http_443: portsweep (1.0)
|   |   |   |   service = urp_i: mscan (0.0)
|   |   |   |   service = login: mscan (0.0)
|   |   |   |   service = gopher: mscan (0.0)
|   |   |   |   service = exec: mscan (0.0)
|   |   |   |   service = time: mscan (0.0)
|   |   |   |   service = remote_job: mscan (0.0)
|   |   |   |   service = ssh: mscan (0.0)
|   |   |   |   service = kshell: mscan (0.0)
|   |   |   |   service = sql_net: mscan (0.0)
|   |   |   |   service = shell: mscan (0.0)
|   |   |   |   service = hostnames: mscan (0.0)
|   |   |   |   service = echo: mscan (0.0)
|   |   |   |   service = daytime: mscan (0.0)
|   |   |   |   service = pm_dump: mscan (0.0)
|   |   |   |   service = IRC: normal (1.0)
|   |   |   |   service = netstat: mscan (0.0)
|   |   |   |   service = ctf: mscan (0.0)
|   |   |   |   service = nntp: mscan (0.0)
|   |   |   |   service = netbios_ssn: mscan (0.0)
|   |   |   |   service = tim_i: mscan (0.0)
|   |   |   |   service = supdup: mscan (0.0)
|   |   |   |   service = bgp: mscan (0.0)
|   |   |   |   service = nnsp: mscan (0.0)
|   |   |   |   service = rje: mscan (0.0)
|   |   |   |   service = printer: mscan (0.0)
|   |   |   |   service = efs: mscan (0.0)
|   |   |   |   service = X11: normal (8.0)
|   |   |   |   service = ntp_u: mscan (0.0)
|   |   |   |   service = klogin: mscan (0.0)
|   |   |   |   service = red_i: mscan (0.0)
|   |   |   |   service = urh_i: mscan (0.0)
|   |   |   |   service = http_8001: mscan (0.0)
|   |   |   |   service = aol: mscan (0.0)
|   |   |   |   service = http_2784: mscan (0.0)
|   |   |   |   service = tftp_u: mscan (0.0)
|   |   |   |   service = harvest: mscan (0.0)
|   |   |   dst_host_same_srv_rate > 0.51
|   |   |   |   service = private: normal (0.0)
|   |   |   |   service = ftp_data: ipsweep (11.0)
|   |   |   |   service = eco_i: normal (0.0)
|   |   |   |   service = telnet: normal (0.0)
|   |   |   |   service = http: normal (2573.0/1.0)
|   |   |   |   service = smtp: normal (3.0)
|   |   |   |   service = ftp: normal (0.0)
|   |   |   |   service = ldap: normal (0.0)
|   |   |   |   service = pop_3: normal (0.0)
|   |   |   |   service = courier: normal (0.0)
|   |   |   |   service = discard: normal (0.0)
|   |   |   |   service = ecr_i: normal (0.0)
|   |   |   |   service = imap4: normal (0.0)
|   |   |   |   service = domain_u: normal (0.0)
|   |   |   |   service = mtp: normal (0.0)
|   |   |   |   service = systat: normal (0.0)
|   |   |   |   service = iso_tsap: normal (0.0)
|   |   |   |   service = other: normal (40.0)
|   |   |   |   service = csnet_ns: normal (0.0)
|   |   |   |   service = finger: normal (0.0)
|   |   |   |   service = uucp: normal (0.0)
|   |   |   |   service = whois: normal (0.0)
|   |   |   |   service = netbios_ns: normal (0.0)
|   |   |   |   service = link: normal (0.0)
|   |   |   |   service = Z39_50: normal (0.0)
|   |   |   |   service = sunrpc: normal (0.0)
|   |   |   |   service = auth: normal (0.0)
|   |   |   |   service = netbios_dgm: normal (0.0)
|   |   |   |   service = uucp_path: normal (0.0)
|   |   |   |   service = vmnet: normal (0.0)
|   |   |   |   service = domain: normal (0.0)
|   |   |   |   service = name: normal (0.0)
|   |   |   |   service = pop_2: normal (0.0)
|   |   |   |   service = http_443: normal (0.0)
|   |   |   |   service = urp_i: normal (0.0)
|   |   |   |   service = login: normal (0.0)
|   |   |   |   service = gopher: normal (0.0)
|   |   |   |   service = exec: normal (0.0)
|   |   |   |   service = time: normal (0.0)
|   |   |   |   service = remote_job: normal (0.0)
|   |   |   |   service = ssh: normal (0.0)
|   |   |   |   service = kshell: normal (0.0)
|   |   |   |   service = sql_net: normal (0.0)
|   |   |   |   service = shell: normal (0.0)
|   |   |   |   service = hostnames: normal (0.0)
|   |   |   |   service = echo: normal (0.0)
|   |   |   |   service = daytime: normal (0.0)
|   |   |   |   service = pm_dump: normal (0.0)
|   |   |   |   service = IRC: normal (0.0)
|   |   |   |   service = netstat: normal (0.0)
|   |   |   |   service = ctf: normal (0.0)
|   |   |   |   service = nntp: normal (0.0)
|   |   |   |   service = netbios_ssn: normal (0.0)
|   |   |   |   service = tim_i: normal (0.0)
|   |   |   |   service = supdup: normal (0.0)
|   |   |   |   service = bgp: normal (0.0)
|   |   |   |   service = nnsp: normal (0.0)
|   |   |   |   service = rje: normal (0.0)
|   |   |   |   service = printer: normal (0.0)
|   |   |   |   service = efs: normal (0.0)
|   |   |   |   service = X11: normal (0.0)
|   |   |   |   service = ntp_u: normal (0.0)
|   |   |   |   service = klogin: normal (0.0)
|   |   |   |   service = red_i: normal (0.0)
|   |   |   |   service = urh_i: normal (0.0)
|   |   |   |   service = http_8001: normal (0.0)
|   |   |   |   service = aol: normal (0.0)
|   |   |   |   service = http_2784: normal (0.0)
|   |   |   |   service = tftp_u: normal (0.0)
|   |   |   |   service = harvest: normal (0.0)
|   flag = SF
|   |   dst_host_count <= 4
|   |   |   protocol_type = tcp
|   |   |   |   dst_host_srv_count <= 60
|   |   |   |   |   service = private: normal (2.0)
|   |   |   |   |   service = ftp_data
|   |   |   |   |   |   dst_host_diff_srv_rate <= 0.25
|   |   |   |   |   |   |   same_srv_rate <= 0.87
|   |   |   |   |   |   |   |   dst_host_srv_count <= 2: normal (2.0)
|   |   |   |   |   |   |   |   dst_host_srv_count > 2: loadmodule (3.0)
|   |   |   |   |   |   |   same_srv_rate > 0.87
|   |   |   |   |   |   |   |   count <= 2
|   |   |   |   |   |   |   |   |   dst_host_srv_count <= 4
|   |   |   |   |   |   |   |   |   |   hot <= 0
|   |   |   |   |   |   |   |   |   |   |   srv_diff_host_rate <= 0.25
|   |   |   |   |   |   |   |   |   |   |   |   dst_host_srv_count <= 2
|   |   |   |   |   |   |   |   |   |   |   |   |   count <= 1: warezmaster (21.0/12.0)
|   |   |   |   |   |   |   |   |   |   |   |   |   count > 1: normal (10.0/3.0)
|   |   |   |   |   |   |   |   |   |   |   |   dst_host_srv_count > 2: warezmaster (24.0/12.0)
|   |   |   |   |   |   |   |   |   |   |   srv_diff_host_rate > 0.25: warezmaster (6.0/1.0)
|   |   |   |   |   |   |   |   |   |   hot > 0: warezmaster (7.0)
|   |   |   |   |   |   |   |   |   dst_host_srv_count > 4
|   |   |   |   |   |   |   |   |   |   srv_count <= 3
|   |   |   |   |   |   |   |   |   |   |   dst_host_srv_count <= 20
|   |   |   |   |   |   |   |   |   |   |   |   count <= 1
|   |   |   |   |   |   |   |   |   |   |   |   |   dst_host_count <= 3
|   |   |   |   |   |   |   |   |   |   |   |   |   |   hot <= 0
|   |   |   |   |   |   |   |   |   |   |   |   |   |   |   dst_host_count <= 1: warezclient (50.0/24.0)
|   |   |   |   |   |   |   |   |   |   |   |   |   |   |   dst_host_count > 1: warezmaster (37.0/16.0)
|   |   |   |   |   |   |   |   |   |   |   |   |   |   hot > 0: warezmaster (3.0)
|   |   |   |   |   |   |   |   |   |   |   |   |   dst_host_count > 3: warezclient (3.0)
|   |   |   |   |   |   |   |   |   |   |   |   count > 1
|   |   |   |   |   |   |   |   |   |   |   |   |   hot <= 0
|   |   |   |   |   |   |   |   |   |   |   |   |   |   dst_host_count <= 3: warezclient (50.0/23.0)
|   |   |   |   |   |   |   |   |   |   |   |   |   |   dst_host_count > 3: warezmaster (35.0/13.0)
|   |   |   |   |   |   |   |   |   |   |   |   |   hot > 0: warezmaster (5.0)
|   |   |   |   |   |   |   |   |   |   |   dst_host_srv_count > 20: warezclient (245.0/77.0)
|   |   |   |   |   |   |   |   |   |   srv_count > 3
|   |   |   |   |   |   |   |   |   |   |   dst_host_srv_count <= 20: warezmaster (2.0)
|   |   |   |   |   |   |   |   |   |   |   dst_host_srv_count > 20: normal (3.0/1.0)
|   |   |   |   |   |   |   |   count > 2
|   |   |   |   |   |   |   |   |   count <= 5: buffer_overflow (4.0/1.0)
|   |   |   |   |   |   |   |   |   count > 5: normal (4.0)
|   |   |   |   |   |   dst_host_diff_srv_rate > 0.25
|   |   |   |   |   |   |   dst_host_srv_count <= 33
|   |   |   |   |   |   |   |   count <= 1: warezmaster (21.0/6.0)
|   |   |   |   |   |   |   |   count > 1: normal (14.0/6.0)
|   |   |   |   |   |   |   dst_host_srv_count > 33
|   |   |   |   |   |   |   |   dst_host_srv_count <= 44: warezclient (2.0)
|   |   |   |   |   |   |   |   dst_host_srv_count > 44: normal (3.0)
|   |   |   |   |   service = eco_i: normal (0.0)
|   |   |   |   |   service = telnet
|   |   |   |   |   |   hot <= 0
|   |   |   |   |   |   |   dst_host_count <= 3: normal (73.0/3.0)
|   |   |   |   |   |   |   dst_host_count > 3: ipsweep (5.0/1.0)
|   |   |   |   |   |   hot > 0
|   |   |   |   |   |   |   hot <= 2
|   |   |   |   |   |   |   |   dst_host_count <= 1
|   |   |   |   |   |   |   |   |   hot <= 1: normal (3.0/1.0)
|   |   |   |   |   |   |   |   |   hot > 1: loadmodule (4.0/2.0)
|   |   |   |   |   |   |   |   dst_host_count > 1: xterm (2.0)
|   |   |   |   |   |   |   hot > 2: buffer_overflow (15.0/2.0)
|   |   |   |   |   service = http
|   |   |   |   |   |   hot <= 1: normal (150.0)
|   |   |   |   |   |   hot > 1: back (12.0/1.0)
|   |   |   |   |   service = smtp: normal (38.0)
|   |   |   |   |   service = ftp
|   |   |   |   |   |   hot <= 3
|   |   |   |   |   |   |   dst_host_same_srv_rate <= 0.41: ps (2.0/1.0)
|   |   |   |   |   |   |   dst_host_same_srv_rate > 0.41: warezmaster (14.0/6.0)
|   |   |   |   |   |   hot > 3: normal (42.0/2.0)
|   |   |   |   |   service = ldap: normal (0.0)
|   |   |   |   |   service = pop_3
|   |   |   |   |   |   dst_host_srv_count <= 3: normal (10.0)
|   |   |   |   |   |   dst_host_srv_count > 3
|   |   |   |   |   |   |   dst_host_count <= 1: normal (5.0/1.0)
|   |   |   |   |   |   |   dst_host_count > 1: guess_passwd (4.0/1.0)
|   |   |   |   |   service = courier: normal (0.0)
|   |   |   |   |   service = discard: normal (0.0)
|   |   |   |   |   service = ecr_i: normal (0.0)
|   |   |   |   |   service = imap4: imap (2.0)
|   |   |   |   |   service = domain_u: normal (0.0)
|   |   |   |   |   service = mtp: normal (0.0)
|   |   |   |   |   service = systat: normal (0.0)
|   |   |   |   |   service = iso_tsap: normal (0.0)
|   |   |   |   |   service = other: normal (0.0)
|   |   |   |   |   service = csnet_ns: normal (0.0)
|   |   |   |   |   service = finger: normal (23.0)
|   |   |   |   |   service = uucp: normal (0.0)
|   |   |   |   |   service = whois: normal (0.0)
|   |   |   |   |   service = netbios_ns: normal (0.0)
|   |   |   |   |   service = link: normal (0.0)
|   |   |   |   |   service = Z39_50: normal (0.0)
|   |   |   |   |   service = sunrpc: normal (0.0)
|   |   |   |   |   service = auth: normal (26.0/4.0)
|   |   |   |   |   service = netbios_dgm: normal (0.0)
|   |   |   |   |   service = uucp_path: normal (0.0)
|   |   |   |   |   service = vmnet: normal (0.0)
|   |   |   |   |   service = domain: normal (0.0)
|   |   |   |   |   service = name: normal (0.0)
|   |   |   |   |   service = pop_2: normal (0.0)
|   |   |   |   |   service = http_443: normal (0.0)
|   |   |   |   |   service = urp_i: normal (0.0)
|   |   |   |   |   service = login: ftp_write (2.0)
|   |   |   |   |   service = gopher: normal (0.0)
|   |   |   |   |   service = exec: normal (0.0)
|   |   |   |   |   service = time: normal (9.0)
|   |   |   |   |   service = remote_job: normal (0.0)
|   |   |   |   |   service = ssh: ipsweep (2.0)
|   |   |   |   |   service = kshell: normal (0.0)
|   |   |   |   |   service = sql_net: normal (0.0)
|   |   |   |   |   service = shell: normal (1.0)
|   |   |   |   |   service = hostnames: normal (0.0)
|   |   |   |   |   service = echo: normal (0.0)
|   |   |   |   |   service = daytime: normal (0.0)
|   |   |   |   |   service = pm_dump: normal (0.0)
|   |   |   |   |   service = IRC: normal (2.0)
|   |   |   |   |   service = netstat: normal (0.0)
|   |   |   |   |   service = ctf: normal (0.0)
|   |   |   |   |   service = nntp: normal (0.0)
|   |   |   |   |   service = netbios_ssn: normal (0.0)
|   |   |   |   |   service = tim_i: normal (0.0)
|   |   |   |   |   service = supdup: normal (0.0)
|   |   |   |   |   service = bgp: normal (0.0)
|   |   |   |   |   service = nnsp: normal (0.0)
|   |   |   |   |   service = rje: normal (0.0)
|   |   |   |   |   service = printer: normal (0.0)
|   |   |   |   |   service = efs: normal (0.0)
|   |   |   |   |   service = X11: normal (8.0/2.0)
|   |   |   |   |   service = ntp_u: normal (0.0)
|   |   |   |   |   service = klogin: normal (0.0)
|   |   |   |   |   service = red_i: normal (0.0)
|   |   |   |   |   service = urh_i: normal (0.0)
|   |   |   |   |   service = http_8001: normal (0.0)
|   |   |   |   |   service = aol: normal (0.0)
|   |   |   |   |   service = http_2784: normal (0.0)
|   |   |   |   |   service = tftp_u: normal (0.0)
|   |   |   |   |   service = harvest: normal (0.0)
|   |   |   |   dst_host_srv_count > 60: normal (2656.0/8.0)
|   |   |   protocol_type = icmp
|   |   |   |   service = private: ipsweep (0.0)
|   |   |   |   service = ftp_data: ipsweep (0.0)
|   |   |   |   service = eco_i
|   |   |   |   |   srv_count <= 52
|   |   |   |   |   |   dst_host_count <= 2
|   |   |   |   |   |   |   srv_diff_host_rate <= 0.5: ipsweep (538.0/18.0)
|   |   |   |   |   |   |   srv_diff_host_rate > 0.5
|   |   |   |   |   |   |   |   dst_host_srv_count <= 132
|   |   |   |   |   |   |   |   |   dst_host_srv_count <= 40: ipsweep (720.0/50.0)
|   |   |   |   |   |   |   |   |   dst_host_srv_count > 40
|   |   |   |   |   |   |   |   |   |   dst_host_srv_count <= 42
|   |   |   |   |   |   |   |   |   |   |   srv_count <= 31: ipsweep (27.0/5.0)
|   |   |   |   |   |   |   |   |   |   |   srv_count > 31
|   |   |   |   |   |   |   |   |   |   |   |   srv_count <= 43: nmap (24.0/6.0)
|   |   |   |   |   |   |   |   |   |   |   |   srv_count > 43: ipsweep (5.0/1.0)
|   |   |   |   |   |   |   |   |   |   dst_host_srv_count > 42: ipsweep (1583.0/194.0)
|   |   |   |   |   |   |   |   dst_host_srv_count > 132
|   |   |   |   |   |   |   |   |   srv_count <= 36
|   |   |   |   |   |   |   |   |   |   dst_host_srv_count <= 254
|   |   |   |   |   |   |   |   |   |   |   srv_count <= 7
|   |   |   |   |   |   |   |   |   |   |   |   dst_host_srv_count <= 225
|   |   |   |   |   |   |   |   |   |   |   |   |   dst_host_srv_count <= 163: ipsweep (22.0/2.0)
|   |   |   |   |   |   |   |   |   |   |   |   |   dst_host_srv_count > 163: nmap (17.0/6.0)
|   |   |   |   |   |   |   |   |   |   |   |   dst_host_srv_count > 225: ipsweep (16.0)
|   |   |   |   |   |   |   |   |   |   |   srv_count > 7
|   |   |   |   |   |   |   |   |   |   |   |   dst_host_count <= 1: ipsweep (165.0/74.0)
|   |   |   |   |   |   |   |   |   |   |   |   dst_host_count > 1
|   |   |   |   |   |   |   |   |   |   |   |   |   srv_count <= 27: nmap (107.0/48.0)
|   |   |   |   |   |   |   |   |   |   |   |   |   srv_count > 27
|   |   |   |   |   |   |   |   |   |   |   |   |   |   dst_host_srv_count <= 209: ipsweep (24.0)
|   |   |   |   |   |   |   |   |   |   |   |   |   |   dst_host_srv_count > 209: nmap (20.0/6.0)
|   |   |   |   |   |   |   |   |   |   dst_host_srv_count > 254: ipsweep (71.0/3.0)
|   |   |   |   |   |   |   |   |   srv_count > 36: ipsweep (237.0/48.0)
|   |   |   |   |   |   dst_host_count > 2
|   |   |   |   |   |   |   srv_count <= 2
|   |   |   |   |   |   |   |   dst_host_diff_srv_rate <= 0.71
|   |   |   |   |   |   |   |   |   srv_count <= 1: ipsweep (142.0/14.0)
|   |   |   |   |   |   |   |   |   srv_count > 1
|   |   |   |   |   |   |   |   |   |   dst_host_count <= 3: nmap (6.0/1.0)
|   |   |   |   |   |   |   |   |   |   dst_host_count > 3: ipsweep (19.0/4.0)
|   |   |   |   |   |   |   |   dst_host_diff_srv_rate > 0.71: nmap (2.0)
|   |   |   |   |   |   |   srv_count > 2: nmap (472.0/3.0)
|   |   |   |   |   srv_count > 52: saint (84.0)
|   |   |   |   service = telnet: ipsweep (0.0)
|   |   |   |   service = http: ipsweep (0.0)
|   |   |   |   service = smtp: ipsweep (0.0)
|   |   |   |   service = ftp: ipsweep (0.0)
|   |   |   |   service = ldap: ipsweep (0.0)
|   |   |   |   service = pop_3: ipsweep (0.0)
|   |   |   |   service = courier: ipsweep (0.0)
|   |   |   |   service = discard: ipsweep (0.0)
|   |   |   |   service = ecr_i
|   |   |   |   |   dst_host_srv_count <= 4
|   |   |   |   |   |   count <= 221
|   |   |   |   |   |   |   dst_host_same_src_port_rate <= 0.83: pod (6.0)
|   |   |   |   |   |   |   dst_host_same_src_port_rate > 0.83
|   |   |   |   |   |   |   |   srv_diff_host_rate <= 0.58
|   |   |   |   |   |   |   |   |   dst_host_count <= 2
|   |   |   |   |   |   |   |   |   |   dst_host_srv_count <= 2: ipsweep (17.0/12.0)
|   |   |   |   |   |   |   |   |   |   dst_host_srv_count > 2: normal (3.0)
|   |   |   |   |   |   |   |   |   dst_host_count > 2: ipsweep (14.0/6.0)
|   |   |   |   |   |   |   |   srv_diff_host_rate > 0.58: pod (2.0)
|   |   |   |   |   |   count > 221: smurf (3.0)
|   |   |   |   |   dst_host_srv_count > 4: pod (149.0/11.0)
|   |   |   |   service = imap4: ipsweep (0.0)
|   |   |   |   service = domain_u: ipsweep (0.0)
|   |   |   |   service = mtp: ipsweep (0.0)
|   |   |   |   service = systat: ipsweep (0.0)
|   |   |   |   service = iso_tsap: ipsweep (0.0)
|   |   |   |   service = other: ipsweep (0.0)
|   |   |   |   service = csnet_ns: ipsweep (0.0)
|   |   |   |   service = finger: ipsweep (0.0)
|   |   |   |   service = uucp: ipsweep (0.0)
|   |   |   |   service = whois: ipsweep (0.0)
|   |   |   |   service = netbios_ns: ipsweep (0.0)
|   |   |   |   service = link: ipsweep (0.0)
|   |   |   |   service = Z39_50: ipsweep (0.0)
|   |   |   |   service = sunrpc: ipsweep (0.0)
|   |   |   |   service = auth: ipsweep (0.0)
|   |   |   |   service = netbios_dgm: ipsweep (0.0)
|   |   |   |   service = uucp_path: ipsweep (0.0)
|   |   |   |   service = vmnet: ipsweep (0.0)
|   |   |   |   service = domain: ipsweep (0.0)
|   |   |   |   service = name: ipsweep (0.0)
|   |   |   |   service = pop_2: ipsweep (0.0)
|   |   |   |   service = http_443: ipsweep (0.0)
|   |   |   |   service = urp_i
|   |   |   |   |   dst_host_count <= 3: normal (2.0)
|   |   |   |   |   dst_host_count > 3: satan (3.0/1.0)
|   |   |   |   service = login: ipsweep (0.0)
|   |   |   |   service = gopher: ipsweep (0.0)
|   |   |   |   service = exec: ipsweep (0.0)
|   |   |   |   service = time: ipsweep (0.0)
|   |   |   |   service = remote_job: ipsweep (0.0)
|   |   |   |   service = ssh: ipsweep (0.0)
|   |   |   |   service = kshell: ipsweep (0.0)
|   |   |   |   service = sql_net: ipsweep (0.0)
|   |   |   |   service = shell: ipsweep (0.0)
|   |   |   |   service = hostnames: ipsweep (0.0)
|   |   |   |   service = echo: ipsweep (0.0)
|   |   |   |   service = daytime: ipsweep (0.0)
|   |   |   |   service = pm_dump: ipsweep (0.0)
|   |   |   |   service = IRC: ipsweep (0.0)
|   |   |   |   service = netstat: ipsweep (0.0)
|   |   |   |   service = ctf: ipsweep (0.0)
|   |   |   |   service = nntp: ipsweep (0.0)
|   |   |   |   service = netbios_ssn: ipsweep (0.0)
|   |   |   |   service = tim_i: pod (7.0/1.0)
|   |   |   |   service = supdup: ipsweep (0.0)
|   |   |   |   service = bgp: ipsweep (0.0)
|   |   |   |   service = nnsp: ipsweep (0.0)
|   |   |   |   service = rje: ipsweep (0.0)
|   |   |   |   service = printer: ipsweep (0.0)
|   |   |   |   service = efs: ipsweep (0.0)
|   |   |   |   service = X11: ipsweep (0.0)
|   |   |   |   service = ntp_u: ipsweep (0.0)
|   |   |   |   service = klogin: ipsweep (0.0)
|   |   |   |   service = red_i: ipsweep (0.0)
|   |   |   |   service = urh_i: ipsweep (0.0)
|   |   |   |   service = http_8001: ipsweep (0.0)
|   |   |   |   service = aol: ipsweep (0.0)
|   |   |   |   service = http_2784: ipsweep (0.0)
|   |   |   |   service = tftp_u: ipsweep (0.0)
|   |   |   |   service = harvest: ipsweep (0.0)
|   |   |   protocol_type = udp: normal (99.0/8.0)
|   |   dst_host_count > 4
|   |   |   protocol_type = tcp
|   |   |   |   hot <= 1
|   |   |   |   |   service = private: normal (0.0)
|   |   |   |   |   service = ftp_data
|   |   |   |   |   |   dst_host_same_src_port_rate <= 0.98
|   |   |   |   |   |   |   dst_host_count <= 14
|   |   |   |   |   |   |   |   dst_host_srv_count <= 32
|   |   |   |   |   |   |   |   |   dst_host_same_srv_rate <= 0.82: normal (109.0/20.0)
|   |   |   |   |   |   |   |   |   dst_host_same_srv_rate > 0.82
|   |   |   |   |   |   |   |   |   |   count <= 2
|   |   |   |   |   |   |   |   |   |   |   count <= 1: warezmaster (20.0/4.0)
|   |   |   |   |   |   |   |   |   |   |   count > 1
|   |   |   |   |   |   |   |   |   |   |   |   dst_host_same_srv_rate <= 0.84: normal (4.0)
|   |   |   |   |   |   |   |   |   |   |   |   dst_host_same_srv_rate > 0.84: warezmaster (20.0/5.0)
|   |   |   |   |   |   |   |   |   |   count > 2: normal (7.0)
|   |   |   |   |   |   |   |   dst_host_srv_count > 32
|   |   |   |   |   |   |   |   |   dst_host_srv_count <= 43
|   |   |   |   |   |   |   |   |   |   dst_host_same_srv_rate <= 0.55: normal (11.0)
|   |   |   |   |   |   |   |   |   |   dst_host_same_srv_rate > 0.55
|   |   |   |   |   |   |   |   |   |   |   dst_host_srv_count <= 37: normal (2.0)
|   |   |   |   |   |   |   |   |   |   |   dst_host_srv_count > 37: warezclient (10.0)
|   |   |   |   |   |   |   |   |   dst_host_srv_count > 43: normal (152.0/1.0)
|   |   |   |   |   |   |   dst_host_count > 14
|   |   |   |   |   |   |   |   srv_count <= 2
|   |   |   |   |   |   |   |   |   dst_host_count <= 220
|   |   |   |   |   |   |   |   |   |   dst_host_srv_count <= 18
|   |   |   |   |   |   |   |   |   |   |   dst_host_count <= 33
|   |   |   |   |   |   |   |   |   |   |   |   dst_host_diff_srv_rate <= 0.1
|   |   |   |   |   |   |   |   |   |   |   |   |   dst_host_same_srv_rate <= 0.14
|   |   |   |   |   |   |   |   |   |   |   |   |   |   dst_host_diff_srv_rate <= 0.06: normal (2.0)
|   |   |   |   |   |   |   |   |   |   |   |   |   |   dst_host_diff_srv_rate > 0.06
|   |   |   |   |   |   |   |   |   |   |   |   |   |   |   dst_host_diff_srv_rate <= 0.08: warezclient (4.0)
|   |   |   |   |   |   |   |   |   |   |   |   |   |   |   dst_host_diff_srv_rate > 0.08: warezmaster (2.0)
|   |   |   |   |   |   |   |   |   |   |   |   |   dst_host_same_srv_rate > 0.14
|   |   |   |   |   |   |   |   |   |   |   |   |   |   dst_host_same_srv_rate <= 0.3: warezmaster (20.0/4.0)
|   |   |   |   |   |   |   |   |   |   |   |   |   |   dst_host_same_srv_rate > 0.3: normal (5.0)
|   |   |   |   |   |   |   |   |   |   |   |   dst_host_diff_srv_rate > 0.1: normal (38.0)
|   |   |   |   |   |   |   |   |   |   |   dst_host_count > 33
|   |   |   |   |   |   |   |   |   |   |   |   dst_host_diff_srv_rate <= 0.02
|   |   |   |   |   |   |   |   |   |   |   |   |   dst_host_count <= 119: warezmaster (10.0)
|   |   |   |   |   |   |   |   |   |   |   |   |   dst_host_count > 119: normal (18.0)
|   |   |   |   |   |   |   |   |   |   |   |   dst_host_diff_srv_rate > 0.02: normal (235.0/1.0)
|   |   |   |   |   |   |   |   |   |   dst_host_srv_count > 18: normal (1767.0/32.0)
|   |   |   |   |   |   |   |   |   dst_host_count > 220
|   |   |   |   |   |   |   |   |   |   dst_host_same_src_port_rate <= 0.31
|   |   |   |   |   |   |   |   |   |   |   same_srv_rate <= 0.83
|   |   |   |   |   |   |   |   |   |   |   |   dst_host_same_srv_rate <= 0.13
|   |   |   |   |   |   |   |   |   |   |   |   |   dst_host_same_srv_rate <= 0.05: normal (11.0)
|   |   |   |   |   |   |   |   |   |   |   |   |   dst_host_same_srv_rate > 0.05: warezmaster (7.0/1.0)
|   |   |   |   |   |   |   |   |   |   |   |   dst_host_same_srv_rate > 0.13: normal (33.0)
|   |   |   |   |   |   |   |   |   |   |   same_srv_rate > 0.83: normal (451.0/19.0)
|   |   |   |   |   |   |   |   |   |   dst_host_same_src_port_rate > 0.31
|   |   |   |   |   |   |   |   |   |   |   dst_host_diff_srv_rate <= 0.06: normal (260.0/13.0)
|   |   |   |   |   |   |   |   |   |   |   dst_host_diff_srv_rate > 0.06
|   |   |   |   |   |   |   |   |   |   |   |   dst_host_same_src_port_rate <= 0.4
|   |   |   |   |   |   |   |   |   |   |   |   |   dst_host_diff_srv_rate <= 0.07
|   |   |   |   |   |   |   |   |   |   |   |   |   |   dst_host_same_srv_rate <= 0.31: normal (5.0)
|   |   |   |   |   |   |   |   |   |   |   |   |   |   dst_host_same_srv_rate > 0.31: warezclient (8.0)
|   |   |   |   |   |   |   |   |   |   |   |   |   dst_host_diff_srv_rate > 0.07: warezclient (12.0)
|   |   |   |   |   |   |   |   |   |   |   |   dst_host_same_src_port_rate > 0.4: normal (9.0)
|   |   |   |   |   |   |   |   srv_count > 2: normal (1899.0)
|   |   |   |   |   |   dst_host_same_src_port_rate > 0.98
|   |   |   |   |   |   |   srv_count <= 2
|   |   |   |   |   |   |   |   dst_host_srv_count <= 38
|   |   |   |   |   |   |   |   |   dst_host_srv_count <= 15: warezmaster (102.0/37.0)
|   |   |   |   |   |   |   |   |   dst_host_srv_count > 15
|   |   |   |   |   |   |   |   |   |   dst_host_srv_count <= 24
|   |   |   |   |   |   |   |   |   |   |   dst_host_count <= 15: warezclient (84.0/29.0)
|   |   |   |   |   |   |   |   |   |   |   dst_host_count > 15: warezmaster (4.0)
|   |   |   |   |   |   |   |   |   |   dst_host_srv_count > 24
|   |   |   |   |   |   |   |   |   |   |   dst_host_srv_count <= 30
|   |   |   |   |   |   |   |   |   |   |   |   dst_host_srv_count <= 28
|   |   |   |   |   |   |   |   |   |   |   |   |   dst_host_count <= 12
|   |   |   |   |   |   |   |   |   |   |   |   |   |   dst_host_count <= 8: warezclient (30.0/13.0)
|   |   |   |   |   |   |   |   |   |   |   |   |   |   dst_host_count > 8: warezmaster (7.0/1.0)
|   |   |   |   |   |   |   |   |   |   |   |   |   dst_host_count > 12: warezclient (4.0)
|   |   |   |   |   |   |   |   |   |   |   |   dst_host_srv_count > 28
|   |   |   |   |   |   |   |   |   |   |   |   |   dst_host_count <= 5: normal (3.0/1.0)
|   |   |   |   |   |   |   |   |   |   |   |   |   dst_host_count > 5: warezmaster (6.0/1.0)
|   |   |   |   |   |   |   |   |   |   |   dst_host_srv_count > 30: warezclient (52.0/16.0)
|   |   |   |   |   |   |   |   dst_host_srv_count > 38
|   |   |   |   |   |   |   |   |   dst_host_srv_count <= 68: warezclient (104.0/9.0)
|   |   |   |   |   |   |   |   |   dst_host_srv_count > 68: normal (14.0)
|   |   |   |   |   |   |   srv_count > 2: normal (103.0)
|   |   |   |   |   service = eco_i: normal (0.0)
|   |   |   |   |   service = telnet
|   |   |   |   |   |   dst_host_srv_count <= 66
|   |   |   |   |   |   |   srv_diff_host_rate <= 0.25
|   |   |   |   |   |   |   |   dst_host_count <= 254
|   |   |   |   |   |   |   |   |   hot <= 0: normal (484.0/19.0)
|   |   |   |   |   |   |   |   |   hot > 0
|   |   |   |   |   |   |   |   |   |   dst_host_same_src_port_rate <= 0.09
|   |   |   |   |   |   |   |   |   |   |   dst_host_srv_count <= 16: normal (8.0/1.0)
|   |   |   |   |   |   |   |   |   |   |   dst_host_srv_count > 16: ps (4.0/2.0)
|   |   |   |   |   |   |   |   |   |   dst_host_same_src_port_rate > 0.09: xterm (2.0)
|   |   |   |   |   |   |   |   dst_host_count > 254
|   |   |   |   |   |   |   |   |   srv_count <= 1
|   |   |   |   |   |   |   |   |   |   dst_host_diff_srv_rate <= 0.02
|   |   |   |   |   |   |   |   |   |   |   dst_host_same_srv_rate <= 0.17
|   |   |   |   |   |   |   |   |   |   |   |   dst_host_same_srv_rate <= 0.01: normal (33.0/13.0)
|   |   |   |   |   |   |   |   |   |   |   |   dst_host_same_srv_rate > 0.01
|   |   |   |   |   |   |   |   |   |   |   |   |   hot <= 0: guess_passwd (42.0/6.0)
|   |   |   |   |   |   |   |   |   |   |   |   |   hot > 0: rootkit (2.0/1.0)
|   |   |   |   |   |   |   |   |   |   |   dst_host_same_srv_rate > 0.17: normal (67.0/18.0)
|   |   |   |   |   |   |   |   |   |   dst_host_diff_srv_rate > 0.02
|   |   |   |   |   |   |   |   |   |   |   dst_host_diff_srv_rate <= 0.7
|   |   |   |   |   |   |   |   |   |   |   |   dst_host_diff_srv_rate <= 0.04
|   |   |   |   |   |   |   |   |   |   |   |   |   dst_host_same_srv_rate <= 0.13: normal (13.0/3.0)
|   |   |   |   |   |   |   |   |   |   |   |   |   dst_host_same_srv_rate > 0.13: processtable (26.0)
|   |   |   |   |   |   |   |   |   |   |   |   dst_host_diff_srv_rate > 0.04: normal (111.0/2.0)
|   |   |   |   |   |   |   |   |   |   |   dst_host_diff_srv_rate > 0.7
|   |   |   |   |   |   |   |   |   |   |   |   dst_host_diff_srv_rate <= 0.72: buffer_overflow (2.0)
|   |   |   |   |   |   |   |   |   |   |   |   dst_host_diff_srv_rate > 0.72
|   |   |   |   |   |   |   |   |   |   |   |   |   dst_host_srv_count <= 7
|   |   |   |   |   |   |   |   |   |   |   |   |   |   dst_host_diff_srv_rate <= 0.84: normal (3.0)
|   |   |   |   |   |   |   |   |   |   |   |   |   |   dst_host_diff_srv_rate > 0.84
|   |   |   |   |   |   |   |   |   |   |   |   |   |   |   dst_host_diff_srv_rate <= 0.87: processtable (4.0)
|   |   |   |   |   |   |   |   |   |   |   |   |   |   |   dst_host_diff_srv_rate > 0.87: normal (2.0)
|   |   |   |   |   |   |   |   |   |   |   |   |   dst_host_srv_count > 7: processtable (18.0)
|   |   |   |   |   |   |   |   |   srv_count > 1: guess_passwd (17.0/1.0)
|   |   |   |   |   |   |   srv_diff_host_rate > 0.25
|   |   |   |   |   |   |   |   dst_host_diff_srv_rate <= 0.03: mscan (17.0/1.0)
|   |   |   |   |   |   |   |   dst_host_diff_srv_rate > 0.03
|   |   |   |   |   |   |   |   |   dst_host_diff_srv_rate <= 0.06: processtable (6.0)
|   |   |   |   |   |   |   |   |   dst_host_diff_srv_rate > 0.06: mscan (3.0)
|   |   |   |   |   |   dst_host_srv_count > 66
|   |   |   |   |   |   |   dst_host_count <= 253
|   |   |   |   |   |   |   |   srv_count <= 1: normal (16.0/2.0)
|   |   |   |   |   |   |   |   srv_count > 1: mscan (46.0)
|   |   |   |   |   |   |   dst_host_count > 253
|   |   |   |   |   |   |   |   dst_host_diff_srv_rate <= 0.02
|   |   |   |   |   |   |   |   |   count <= 1
|   |   |   |   |   |   |   |   |   |   dst_host_diff_srv_rate <= 0.01
|   |   |   |   |   |   |   |   |   |   |   dst_host_same_srv_rate <= 0.72
|   |   |   |   |   |   |   |   |   |   |   |   dst_host_srv_count <= 120: normal (7.0)
|   |   |   |   |   |   |   |   |   |   |   |   dst_host_srv_count > 120: mscan (3.0)
|   |   |   |   |   |   |   |   |   |   |   dst_host_same_srv_rate > 0.72: guess_passwd (92.0/3.0)
|   |   |   |   |   |   |   |   |   |   dst_host_diff_srv_rate > 0.01
|   |   |   |   |   |   |   |   |   |   |   dst_host_same_srv_rate <= 0.62
|   |   |   |   |   |   |   |   |   |   |   |   dst_host_srv_count <= 112: processtable (105.0/51.0)
|   |   |   |   |   |   |   |   |   |   |   |   dst_host_srv_count > 112: guess_passwd (39.0)
|   |   |   |   |   |   |   |   |   |   |   dst_host_same_srv_rate > 0.62: processtable (220.0/66.0)
|   |   |   |   |   |   |   |   |   count > 1
|   |   |   |   |   |   |   |   |   |   srv_diff_host_rate <= 0.44: guess_passwd (53.0)
|   |   |   |   |   |   |   |   |   |   srv_diff_host_rate > 0.44: mscan (3.0)
|   |   |   |   |   |   |   |   dst_host_diff_srv_rate > 0.02
|   |   |   |   |   |   |   |   |   same_srv_rate <= 0.55
|   |   |   |   |   |   |   |   |   |   count <= 3: processtable (4.0/1.0)
|   |   |   |   |   |   |   |   |   |   count > 3: mscan (2.0)
|   |   |   |   |   |   |   |   |   same_srv_rate > 0.55: processtable (169.0)
|   |   |   |   |   service = http: normal (38771.0/15.0)
|   |   |   |   |   service = smtp
|   |   |   |   |   |   count <= 1
|   |   |   |   |   |   |   dst_host_diff_srv_rate <= 0.91
|   |   |   |   |   |   |   |   dst_host_srv_count <= 243
|   |   |   |   |   |   |   |   |   dst_host_diff_srv_rate <= 0.37: normal (6481.0/8.0)
|   |   |   |   |   |   |   |   |   dst_host_diff_srv_rate > 0.37
|   |   |   |   |   |   |   |   |   |   dst_host_diff_srv_rate <= 0.39
|   |   |   |   |   |   |   |   |   |   |   dst_host_same_src_port_rate <= 0.01
|   |   |   |   |   |   |   |   |   |   |   |   dst_host_count <= 185: satan (5.0)
|   |   |   |   |   |   |   |   |   |   |   |   dst_host_count > 185: normal (3.0)
|   |   |   |   |   |   |   |   |   |   |   dst_host_same_src_port_rate > 0.01: normal (6.0)
|   |   |   |   |   |   |   |   |   |   dst_host_diff_srv_rate > 0.39: normal (205.0/2.0)
|   |   |   |   |   |   |   |   dst_host_srv_count > 243
|   |   |   |   |   |   |   |   |   dst_host_count <= 237: normal (138.0)
|   |   |   |   |   |   |   |   |   dst_host_count > 237: mailbomb (6.0/1.0)
|   |   |   |   |   |   |   dst_host_diff_srv_rate > 0.91
|   |   |   |   |   |   |   |   dst_host_same_src_port_rate <= 0.09: normal (7.0)
|   |   |   |   |   |   |   |   dst_host_same_src_port_rate > 0.09: ipsweep (11.0)
|   |   |   |   |   |   count > 1
|   |   |   |   |   |   |   dst_host_count <= 254: normal (283.0/1.0)
|   |   |   |   |   |   |   dst_host_count > 254
|   |   |   |   |   |   |   |   same_srv_rate <= 0.55: normal (75.0)
|   |   |   |   |   |   |   |   same_srv_rate > 0.55
|   |   |   |   |   |   |   |   |   dst_host_diff_srv_rate <= 0.03: normal (8.0)
|   |   |   |   |   |   |   |   |   dst_host_diff_srv_rate > 0.03
|   |   |   |   |   |   |   |   |   |   dst_host_diff_srv_rate <= 0.31
|   |   |   |   |   |   |   |   |   |   |   srv_diff_host_rate <= 0.58: mailbomb (285.0/1.0)
|   |   |   |   |   |   |   |   |   |   |   srv_diff_host_rate > 0.58
|   |   |   |   |   |   |   |   |   |   |   |   dst_host_same_srv_rate <= 0.67: normal (2.0)
|   |   |   |   |   |   |   |   |   |   |   |   dst_host_same_srv_rate > 0.67: mailbomb (3.0)
|   |   |   |   |   |   |   |   |   |   dst_host_diff_srv_rate > 0.31: normal (3.0)
|   |   |   |   |   service = ftp
|   |   |   |   |   |   hot <= 0
|   |   |   |   |   |   |   dst_host_same_srv_rate <= 0.44
|   |   |   |   |   |   |   |   dst_host_same_src_port_rate <= 0: warezmaster (3.0/2.0)
|   |   |   |   |   |   |   |   dst_host_same_src_port_rate > 0
|   |   |   |   |   |   |   |   |   dst_host_diff_srv_rate <= 0.08: normal (23.0)
|   |   |   |   |   |   |   |   |   dst_host_diff_srv_rate > 0.08
|   |   |   |   |   |   |   |   |   |   dst_host_same_src_port_rate <= 0.03
|   |   |   |   |   |   |   |   |   |   |   dst_host_diff_srv_rate <= 0.1
|   |   |   |   |   |   |   |   |   |   |   |   dst_host_srv_count <= 15: normal (4.0)
|   |   |   |   |   |   |   |   |   |   |   |   dst_host_srv_count > 15: guess_passwd (5.0/1.0)
|   |   |   |   |   |   |   |   |   |   |   dst_host_diff_srv_rate > 0.1: guess_passwd (5.0)
|   |   |   |   |   |   |   |   |   |   dst_host_same_src_port_rate > 0.03: normal (6.0)
|   |   |   |   |   |   |   dst_host_same_srv_rate > 0.44
|   |   |   |   |   |   |   |   dst_host_same_src_port_rate <= 0.03: guess_passwd (87.0)
|   |   |   |   |   |   |   |   dst_host_same_src_port_rate > 0.03: normal (2.0/1.0)
|   |   |   |   |   |   hot > 0
|   |   |   |   |   |   |   dst_host_same_src_port_rate <= 0
|   |   |   |   |   |   |   |   dst_host_same_srv_rate <= 0.04: rootkit (3.0/1.0)
|   |   |   |   |   |   |   |   dst_host_same_srv_rate > 0.04: warezmaster (3.0/2.0)
|   |   |   |   |   |   |   dst_host_same_src_port_rate > 0
|   |   |   |   |   |   |   |   dst_host_count <= 106: ps (2.0)
|   |   |   |   |   |   |   |   dst_host_count > 106: satan (2.0/1.0)
|   |   |   |   |   service = ldap: normal (0.0)
|   |   |   |   |   service = pop_3
|   |   |   |   |   |   dst_host_same_srv_rate <= 0.2
|   |   |   |   |   |   |   dst_host_srv_count <= 11
|   |   |   |   |   |   |   |   dst_host_same_srv_rate <= 0.11
|   |   |   |   |   |   |   |   |   dst_host_diff_srv_rate <= 0.02
|   |   |   |   |   |   |   |   |   |   dst_host_count <= 254: normal (3.0)
|   |   |   |   |   |   |   |   |   |   dst_host_count > 254: guess_passwd (22.0/7.0)
|   |   |   |   |   |   |   |   |   dst_host_diff_srv_rate > 0.02
|   |   |   |   |   |   |   |   |   |   dst_host_srv_count <= 9: normal (155.0/2.0)
|   |   |   |   |   |   |   |   |   |   dst_host_srv_count > 9
|   |   |   |   |   |   |   |   |   |   |   dst_host_count <= 205: normal (2.0)
|   |   |   |   |   |   |   |   |   |   |   dst_host_count > 205: guess_passwd (2.0)
|   |   |   |   |   |   |   |   dst_host_same_srv_rate > 0.11
|   |   |   |   |   |   |   |   |   dst_host_same_src_port_rate <= 0.05: guess_passwd (7.0)
|   |   |   |   |   |   |   |   |   dst_host_same_src_port_rate > 0.05: normal (2.0)
|   |   |   |   |   |   |   dst_host_srv_count > 11
|   |   |   |   |   |   |   |   count <= 1: guess_passwd (6.0/1.0)
|   |   |   |   |   |   |   |   count > 1: mscan (3.0)
|   |   |   |   |   |   dst_host_same_srv_rate > 0.2: guess_passwd (711.0)
|   |   |   |   |   service = courier: normal (0.0)
|   |   |   |   |   service = discard: normal (0.0)
|   |   |   |   |   service = ecr_i: normal (0.0)
|   |   |   |   |   service = imap4
|   |   |   |   |   |   dst_host_diff_srv_rate <= 0.01
|   |   |   |   |   |   |   dst_host_count <= 132: imap (2.0)
|   |   |   |   |   |   |   dst_host_count > 132: normal (4.0/1.0)
|   |   |   |   |   |   dst_host_diff_srv_rate > 0.01: mscan (11.0)
|   |   |   |   |   service = domain_u: normal (0.0)
|   |   |   |   |   service = mtp: normal (0.0)
|   |   |   |   |   service = systat: normal (0.0)
|   |   |   |   |   service = iso_tsap: normal (0.0)
|   |   |   |   |   service = other
|   |   |   |   |   |   dst_host_same_src_port_rate <= 0.03: httptunnel (18.0)
|   |   |   |   |   |   dst_host_same_src_port_rate > 0.03
|   |   |   |   |   |   |   dst_host_same_srv_rate <= 0.06: normal (36.0)
|   |   |   |   |   |   |   dst_host_same_srv_rate > 0.06
|   |   |   |   |   |   |   |   dst_host_diff_srv_rate <= 0.45: warezclient (2.0)
|   |   |   |   |   |   |   |   dst_host_diff_srv_rate > 0.45: named (3.0/1.0)
|   |   |   |   |   service = csnet_ns: normal (0.0)
|   |   |   |   |   service = finger
|   |   |   |   |   |   dst_host_diff_srv_rate <= 0.97
|   |   |   |   |   |   |   srv_count <= 1: normal (528.0/2.0)
|   |   |   |   |   |   |   srv_count > 1
|   |   |   |   |   |   |   |   dst_host_same_src_port_rate <= 0.01
|   |   |   |   |   |   |   |   |   count <= 1: normal (7.0)
|   |   |   |   |   |   |   |   |   count > 1: satan (17.0)
|   |   |   |   |   |   |   |   dst_host_same_src_port_rate > 0.01: saint (3.0)
|   |   |   |   |   |   dst_host_diff_srv_rate > 0.97: ipsweep (14.0/1.0)
|   |   |   |   |   service = uucp: normal (0.0)
|   |   |   |   |   service = whois: normal (0.0)
|   |   |   |   |   service = netbios_ns: normal (0.0)
|   |   |   |   |   service = link: normal (0.0)
|   |   |   |   |   service = Z39_50: normal (0.0)
|   |   |   |   |   service = sunrpc: normal (0.0)
|   |   |   |   |   service = auth
|   |   |   |   |   |   dst_host_same_src_port_rate <= 0.13: normal (199.0/2.0)
|   |   |   |   |   |   dst_host_same_src_port_rate > 0.13: satan (3.0/1.0)
|   |   |   |   |   service = netbios_dgm: normal (0.0)
|   |   |   |   |   service = uucp_path: normal (0.0)
|   |   |   |   |   service = vmnet: normal (0.0)
|   |   |   |   |   service = domain
|   |   |   |   |   |   dst_host_diff_srv_rate <= 0.7: named (3.0/1.0)
|   |   |   |   |   |   dst_host_diff_srv_rate > 0.7: ipsweep (7.0)
|   |   |   |   |   service = name: normal (0.0)
|   |   |   |   |   service = pop_2: satan (1.0)
|   |   |   |   |   service = http_443: normal (0.0)
|   |   |   |   |   service = urp_i: normal (0.0)
|   |   |   |   |   service = login: ftp_write (1.0)
|   |   |   |   |   service = gopher: ipsweep (8.0/1.0)
|   |   |   |   |   service = exec: normal (0.0)
|   |   |   |   |   service = time
|   |   |   |   |   |   dst_host_same_srv_rate <= 0.43: ipsweep (11.0/1.0)
|   |   |   |   |   |   dst_host_same_srv_rate > 0.43: normal (57.0)
|   |   |   |   |   service = remote_job: normal (0.0)
|   |   |   |   |   service = ssh: normal (5.0)
|   |   |   |   |   service = kshell: normal (0.0)
|   |   |   |   |   service = sql_net: normal (0.0)
|   |   |   |   |   service = shell: normal (1.0)
|   |   |   |   |   service = hostnames: normal (0.0)
|   |   |   |   |   service = echo: normal (0.0)
|   |   |   |   |   service = daytime: normal (0.0)
|   |   |   |   |   service = pm_dump: satan (1.0)
|   |   |   |   |   service = IRC: normal (21.0/1.0)
|   |   |   |   |   service = netstat: normal (0.0)
|   |   |   |   |   service = ctf: normal (0.0)
|   |   |   |   |   service = nntp: satan (2.0)
|   |   |   |   |   service = netbios_ssn: normal (0.0)
|   |   |   |   |   service = tim_i: normal (0.0)
|   |   |   |   |   service = supdup: normal (0.0)
|   |   |   |   |   service = bgp: normal (0.0)
|   |   |   |   |   service = nnsp: normal (0.0)
|   |   |   |   |   service = rje: normal (0.0)
|   |   |   |   |   service = printer: normal (0.0)
|   |   |   |   |   service = efs: normal (0.0)
|   |   |   |   |   service = X11: normal (54.0/7.0)
|   |   |   |   |   service = ntp_u: normal (0.0)
|   |   |   |   |   service = klogin: normal (0.0)
|   |   |   |   |   service = red_i: normal (0.0)
|   |   |   |   |   service = urh_i: normal (0.0)
|   |   |   |   |   service = http_8001: normal (0.0)
|   |   |   |   |   service = aol: normal (0.0)
|   |   |   |   |   service = http_2784: normal (0.0)
|   |   |   |   |   service = tftp_u: normal (0.0)
|   |   |   |   |   service = harvest: normal (0.0)
|   |   |   |   hot > 1
|   |   |   |   |   hot <= 2
|   |   |   |   |   |   service = private: back (0.0)
|   |   |   |   |   |   service = ftp_data
|   |   |   |   |   |   |   count <= 1: warezclient (8.0)
|   |   |   |   |   |   |   count > 1: warezmaster (6.0)
|   |   |   |   |   |   service = eco_i: back (0.0)
|   |   |   |   |   |   service = telnet: normal (10.0/5.0)
|   |   |   |   |   |   service = http
|   |   |   |   |   |   |   count <= 1
|   |   |   |   |   |   |   |   dst_host_srv_count <= 236: back (49.0/3.0)
|   |   |   |   |   |   |   |   dst_host_srv_count > 236
|   |   |   |   |   |   |   |   |   dst_host_srv_count <= 249: phf (3.0)
|   |   |   |   |   |   |   |   |   dst_host_srv_count > 249
|   |   |   |   |   |   |   |   |   |   dst_host_same_src_port_rate <= 0
|   |   |   |   |   |   |   |   |   |   |   srv_count <= 2: back (32.0/13.0)
|   |   |   |   |   |   |   |   |   |   |   srv_count > 2: normal (17.0/1.0)
|   |   |   |   |   |   |   |   |   |   dst_host_same_src_port_rate > 0: normal (17.0)
|   |   |   |   |   |   |   count > 1: back (1095.0/17.0)
|   |   |   |   |   |   service = smtp: normal (7.0)
|   |   |   |   |   |   service = ftp: warezmaster (486.0/7.0)
|   |   |   |   |   |   service = ldap: back (0.0)
|   |   |   |   |   |   service = pop_3: back (0.0)
|   |   |   |   |   |   service = courier: back (0.0)
|   |   |   |   |   |   service = discard: back (0.0)
|   |   |   |   |   |   service = ecr_i: back (0.0)
|   |   |   |   |   |   service = imap4: imap (1.0)
|   |   |   |   |   |   service = domain_u: back (0.0)
|   |   |   |   |   |   service = mtp: back (0.0)
|   |   |   |   |   |   service = systat: back (0.0)
|   |   |   |   |   |   service = iso_tsap: back (0.0)
|   |   |   |   |   |   service = other: normal (2.0/1.0)
|   |   |   |   |   |   service = csnet_ns: back (0.0)
|   |   |   |   |   |   service = finger: normal (1.0)
|   |   |   |   |   |   service = uucp: back (0.0)
|   |   |   |   |   |   service = whois: back (0.0)
|   |   |   |   |   |   service = netbios_ns: back (0.0)
|   |   |   |   |   |   service = link: back (0.0)
|   |   |   |   |   |   service = Z39_50: back (0.0)
|   |   |   |   |   |   service = sunrpc: back (0.0)
|   |   |   |   |   |   service = auth: back (0.0)
|   |   |   |   |   |   service = netbios_dgm: back (0.0)
|   |   |   |   |   |   service = uucp_path: back (0.0)
|   |   |   |   |   |   service = vmnet: back (0.0)
|   |   |   |   |   |   service = domain: back (0.0)
|   |   |   |   |   |   service = name: back (0.0)
|   |   |   |   |   |   service = pop_2: back (0.0)
|   |   |   |   |   |   service = http_443: back (0.0)
|   |   |   |   |   |   service = urp_i: back (0.0)
|   |   |   |   |   |   service = login: back (0.0)
|   |   |   |   |   |   service = gopher: back (0.0)
|   |   |   |   |   |   service = exec: back (0.0)
|   |   |   |   |   |   service = time: back (0.0)
|   |   |   |   |   |   service = remote_job: back (0.0)
|   |   |   |   |   |   service = ssh: back (0.0)
|   |   |   |   |   |   service = kshell: back (0.0)
|   |   |   |   |   |   service = sql_net: back (0.0)
|   |   |   |   |   |   service = shell: back (0.0)
|   |   |   |   |   |   service = hostnames: back (0.0)
|   |   |   |   |   |   service = echo: back (0.0)
|   |   |   |   |   |   service = daytime: back (0.0)
|   |   |   |   |   |   service = pm_dump: back (0.0)
|   |   |   |   |   |   service = IRC: back (0.0)
|   |   |   |   |   |   service = netstat: back (0.0)
|   |   |   |   |   |   service = ctf: back (0.0)
|   |   |   |   |   |   service = nntp: back (0.0)
|   |   |   |   |   |   service = netbios_ssn: back (0.0)
|   |   |   |   |   |   service = tim_i: back (0.0)
|   |   |   |   |   |   service = supdup: back (0.0)
|   |   |   |   |   |   service = bgp: back (0.0)
|   |   |   |   |   |   service = nnsp: back (0.0)
|   |   |   |   |   |   service = rje: back (0.0)
|   |   |   |   |   |   service = printer: back (0.0)
|   |   |   |   |   |   service = efs: back (0.0)
|   |   |   |   |   |   service = X11: back (0.0)
|   |   |   |   |   |   service = ntp_u: back (0.0)
|   |   |   |   |   |   service = klogin: back (0.0)
|   |   |   |   |   |   service = red_i: back (0.0)
|   |   |   |   |   |   service = urh_i: back (0.0)
|   |   |   |   |   |   service = http_8001: back (0.0)
|   |   |   |   |   |   service = aol: back (0.0)
|   |   |   |   |   |   service = http_2784: back (0.0)
|   |   |   |   |   |   service = tftp_u: back (0.0)
|   |   |   |   |   |   service = harvest: back (0.0)
|   |   |   |   |   hot > 2
|   |   |   |   |   |   service = private: normal (0.0)
|   |   |   |   |   |   service = ftp_data: warezclient (21.0)
|   |   |   |   |   |   service = eco_i: normal (0.0)
|   |   |   |   |   |   service = telnet
|   |   |   |   |   |   |   hot <= 12
|   |   |   |   |   |   |   |   dst_host_same_srv_rate <= 0.53
|   |   |   |   |   |   |   |   |   dst_host_same_srv_rate <= 0.23: buffer_overflow (12.0/2.0)
|   |   |   |   |   |   |   |   |   dst_host_same_srv_rate > 0.23: normal (6.0/2.0)
|   |   |   |   |   |   |   |   dst_host_same_srv_rate > 0.53
|   |   |   |   |   |   |   |   |   dst_host_diff_srv_rate <= 0.02: buffer_overflow (5.0)
